digraph Tree {
node [shape=box, style="filled, rounded", color="black", fontname=helvetica] ;
edge [fontname=helvetica] ;
0 [label=<Tm &le; 18.85<br/>mse = 6799.824<br/>samples = 772<br/>value = 108.072>, fillcolor="#f8ddca"] ;
1 [label=<T &le; 23.55<br/>mse = 7599.916<br/>samples = 214<br/>value = 185.117>, fillcolor="#f3c5a4"] ;
0 -> 1 [labeldistance=2.5, labelangle=45, headlabel="True"] ;
2 [label=<TM &le; 26.8<br/>mse = 6416.346<br/>samples = 170<br/>value = 204.941>, fillcolor="#f2bf9b"] ;
1 -> 2 ;
3 [label=<H &le; 61.0<br/>mse = 6145.275<br/>samples = 13<br/>value = 269.83>, fillcolor="#eeab7b"] ;
2 -> 3 ;
4 [label=<mse = 0.0<br/>samples = 1<br/>value = 404.5>, fillcolor="#e58139"] ;
3 -> 4 ;
5 [label=<V &le; 4.1<br/>mse = 5020.106<br/>samples = 12<br/>value = 258.608>, fillcolor="#eeae80"] ;
3 -> 5 ;
6 [label=<TM &le; 26.55<br/>mse = 5018.185<br/>samples = 8<br/>value = 282.547>, fillcolor="#eda775"] ;
5 -> 6 ;
7 [label=<Tm &le; 16.8<br/>mse = 4366.727<br/>samples = 6<br/>value = 306.569>, fillcolor="#eba069"] ;
6 -> 7 ;
8 [label=<Tm &le; 16.3<br/>mse = 376.198<br/>samples = 2<br/>value = 236.479>, fillcolor="#f0b58b"] ;
7 -> 8 ;
9 [label=<mse = 0.0<br/>samples = 1<br/>value = 255.875>, fillcolor="#efaf82"] ;
8 -> 9 ;
10 [label=<mse = 0.0<br/>samples = 1<br/>value = 217.083>, fillcolor="#f1bb95"] ;
8 -> 10 ;
11 [label=<H &le; 89.0<br/>mse = 2677.506<br/>samples = 4<br/>value = 341.615>, fillcolor="#e99558"] ;
7 -> 11 ;
12 [label=<V &le; 3.4<br/>mse = 621.669<br/>samples = 3<br/>value = 368.764>, fillcolor="#e78c4a"] ;
11 -> 12 ;
13 [label=<TM &le; 24.9<br/>mse = 3.516<br/>samples = 2<br/>value = 351.167>, fillcolor="#e89253"] ;
12 -> 13 ;
14 [label=<mse = 0.0<br/>samples = 1<br/>value = 353.042>, fillcolor="#e89152"] ;
13 -> 14 ;
15 [label=<mse = 0.0<br/>samples = 1<br/>value = 349.292>, fillcolor="#e99254"] ;
13 -> 15 ;
16 [label=<mse = 0.0<br/>samples = 1<br/>value = 403.958>, fillcolor="#e58139"] ;
12 -> 16 ;
17 [label=<mse = 0.0<br/>samples = 1<br/>value = 260.167>, fillcolor="#eeae80"] ;
11 -> 17 ;
18 [label=<Tm &le; 18.5<br/>mse = 47.553<br/>samples = 2<br/>value = 210.479>, fillcolor="#f1bd98"] ;
6 -> 18 ;
19 [label=<mse = 0.0<br/>samples = 1<br/>value = 203.583>, fillcolor="#f2c09b"] ;
18 -> 19 ;
20 [label=<mse = 0.0<br/>samples = 1<br/>value = 217.375>, fillcolor="#f1bb95"] ;
18 -> 20 ;
21 [label=<H &le; 72.5<br/>mse = 1585.425<br/>samples = 4<br/>value = 210.729>, fillcolor="#f1bd98"] ;
5 -> 21 ;
22 [label=<mse = 0.0<br/>samples = 1<br/>value = 277.708>, fillcolor="#eda877"] ;
21 -> 22 ;
23 [label=<TM &le; 24.3<br/>mse = 120.029<br/>samples = 3<br/>value = 188.403>, fillcolor="#f3c4a3"] ;
21 -> 23 ;
24 [label=<H &le; 85.0<br/>mse = 22.96<br/>samples = 2<br/>value = 181.167>, fillcolor="#f3c7a6"] ;
23 -> 24 ;
25 [label=<mse = 0.0<br/>samples = 1<br/>value = 185.958>, fillcolor="#f3c5a4"] ;
24 -> 25 ;
26 [label=<mse = 0.0<br/>samples = 1<br/>value = 176.375>, fillcolor="#f4c8a9"] ;
24 -> 26 ;
27 [label=<mse = 0.0<br/>samples = 1<br/>value = 202.875>, fillcolor="#f2c09c"] ;
23 -> 27 ;
28 [label=<Tm &le; 16.45<br/>mse = 6061.28<br/>samples = 157<br/>value = 199.569>, fillcolor="#f2c19d"] ;
2 -> 28 ;
29 [label=<V &le; 3.4<br/>mse = 5126.82<br/>samples = 70<br/>value = 220.166>, fillcolor="#f1ba93"] ;
28 -> 29 ;
30 [label=<TM &le; 31.75<br/>mse = 3943.18<br/>samples = 43<br/>value = 235.02>, fillcolor="#f0b68c"] ;
29 -> 30 ;
31 [label=<V &le; 3.05<br/>mse = 3612.203<br/>samples = 42<br/>value = 238.163>, fillcolor="#f0b58a"] ;
30 -> 31 ;
32 [label=<VM &le; 4.45<br/>mse = 3250.639<br/>samples = 35<br/>value = 227.56>, fillcolor="#f0b890"] ;
31 -> 32 ;
33 [label=<TM &le; 28.95<br/>mse = 2227.304<br/>samples = 19<br/>value = 209.104>, fillcolor="#f2be99"] ;
32 -> 33 ;
34 [label=<V &le; 1.2<br/>mse = 1110.87<br/>samples = 8<br/>value = 242.206>, fillcolor="#efb488"] ;
33 -> 34 ;
35 [label=<VV &le; 6.6<br/>mse = 795.097<br/>samples = 5<br/>value = 225.913>, fillcolor="#f0b990"] ;
34 -> 35 ;
36 [label=<Tm &le; 15.35<br/>mse = 95.978<br/>samples = 3<br/>value = 207.688>, fillcolor="#f2be99"] ;
35 -> 36 ;
37 [label=<H &le; 57.0<br/>mse = 0.013<br/>samples = 2<br/>value = 200.76>, fillcolor="#f2c09d"] ;
36 -> 37 ;
38 [label=<mse = 0.0<br/>samples = 1<br/>value = 200.646>, fillcolor="#f2c09d"] ;
37 -> 38 ;
39 [label=<mse = 0.0<br/>samples = 1<br/>value = 200.875>, fillcolor="#f2c09d"] ;
37 -> 39 ;
40 [label=<mse = 0.0<br/>samples = 1<br/>value = 221.542>, fillcolor="#f1ba93"] ;
36 -> 40 ;
41 [label=<H &le; 63.0<br/>mse = 598.21<br/>samples = 2<br/>value = 253.25>, fillcolor="#efb083"] ;
35 -> 41 ;
42 [label=<mse = 0.0<br/>samples = 1<br/>value = 228.792>, fillcolor="#f0b88f"] ;
41 -> 42 ;
43 [label=<mse = 0.0<br/>samples = 1<br/>value = 277.708>, fillcolor="#eda877"] ;
41 -> 43 ;
44 [label=<Tm &le; 15.15<br/>mse = 457.219<br/>samples = 3<br/>value = 269.362>, fillcolor="#eeab7b"] ;
34 -> 44 ;
45 [label=<T &le; 20.7<br/>mse = 0.099<br/>samples = 2<br/>value = 284.481>, fillcolor="#eda674"] ;
44 -> 45 ;
46 [label=<mse = 0.0<br/>samples = 1<br/>value = 284.167>, fillcolor="#eda674"] ;
45 -> 46 ;
47 [label=<mse = 0.0<br/>samples = 1<br/>value = 284.796>, fillcolor="#eda674"] ;
45 -> 47 ;
48 [label=<mse = 0.0<br/>samples = 1<br/>value = 239.125>, fillcolor="#f0b58a"] ;
44 -> 48 ;
49 [label=<V &le; 2.05<br/>mse = 1662.743<br/>samples = 11<br/>value = 185.029>, fillcolor="#f3c5a4"] ;
33 -> 49 ;
50 [label=<Tm &le; 15.85<br/>mse = 940.661<br/>samples = 7<br/>value = 207.39>, fillcolor="#f2be99"] ;
49 -> 50 ;
51 [label=<TM &le; 30.95<br/>mse = 301.377<br/>samples = 5<br/>value = 190.788>, fillcolor="#f3c4a2"] ;
50 -> 51 ;
52 [label=<H &le; 44.5<br/>mse = 68.521<br/>samples = 3<br/>value = 178.368>, fillcolor="#f4c7a8"] ;
51 -> 52 ;
53 [label=<mse = 0.0<br/>samples = 1<br/>value = 166.875>, fillcolor="#f4cbad"] ;
52 -> 53 ;
54 [label=<VV &le; 6.05<br/>mse = 3.714<br/>samples = 2<br/>value = 184.115>, fillcolor="#f3c6a5"] ;
52 -> 54 ;
55 [label=<mse = 0.0<br/>samples = 1<br/>value = 186.042>, fillcolor="#f3c5a4"] ;
54 -> 55 ;
56 [label=<mse = 0.0<br/>samples = 1<br/>value = 182.188>, fillcolor="#f3c6a6"] ;
54 -> 56 ;
57 [label=<H &le; 43.5<br/>mse = 72.25<br/>samples = 2<br/>value = 209.417>, fillcolor="#f2be98"] ;
51 -> 57 ;
58 [label=<mse = 0.0<br/>samples = 1<br/>value = 217.917>, fillcolor="#f1bb94"] ;
57 -> 58 ;
59 [label=<mse = 0.0<br/>samples = 1<br/>value = 200.917>, fillcolor="#f2c09d"] ;
57 -> 59 ;
60 [label=<TM &le; 29.9<br/>mse = 127.032<br/>samples = 2<br/>value = 248.896>, fillcolor="#efb185"] ;
50 -> 60 ;
61 [label=<mse = 0.0<br/>samples = 1<br/>value = 237.625>, fillcolor="#f0b58b"] ;
60 -> 61 ;
62 [label=<mse = 0.0<br/>samples = 1<br/>value = 260.167>, fillcolor="#eeae80"] ;
60 -> 62 ;
63 [label=<Tm &le; 16.2<br/>mse = 520.129<br/>samples = 4<br/>value = 145.898>, fillcolor="#f6d2b8"] ;
49 -> 63 ;
64 [label=<T &le; 20.75<br/>mse = 55.171<br/>samples = 3<br/>value = 158.531>, fillcolor="#f5ceb1"] ;
63 -> 64 ;
65 [label=<mse = 0.0<br/>samples = 1<br/>value = 169.0>, fillcolor="#f4caac"] ;
64 -> 65 ;
66 [label=<H &le; 53.5<br/>mse = 0.55<br/>samples = 2<br/>value = 153.296>, fillcolor="#f5cfb4"] ;
64 -> 66 ;
67 [label=<mse = 0.0<br/>samples = 1<br/>value = 152.554>, fillcolor="#f5cfb4"] ;
66 -> 67 ;
68 [label=<mse = 0.0<br/>samples = 1<br/>value = 154.038>, fillcolor="#f5cfb4"] ;
66 -> 68 ;
69 [label=<mse = 0.0<br/>samples = 1<br/>value = 108.0>, fillcolor="#f8ddca"] ;
63 -> 69 ;
70 [label=<V &le; 0.9<br/>mse = 3580.988<br/>samples = 16<br/>value = 249.477>, fillcolor="#efb185"] ;
32 -> 70 ;
71 [label=<mse = 0.0<br/>samples = 1<br/>value = 365.292>, fillcolor="#e88d4c"] ;
70 -> 71 ;
72 [label=<H &le; 42.5<br/>mse = 2865.906<br/>samples = 15<br/>value = 241.756>, fillcolor="#efb489"] ;
70 -> 72 ;
73 [label=<V &le; 2.35<br/>mse = 917.171<br/>samples = 3<br/>value = 195.719>, fillcolor="#f2c29f"] ;
72 -> 73 ;
74 [label=<mse = 0.0<br/>samples = 1<br/>value = 236.825>, fillcolor="#f0b58b"] ;
73 -> 74 ;
75 [label=<TM &le; 30.7<br/>mse = 108.507<br/>samples = 2<br/>value = 175.167>, fillcolor="#f4c8a9"] ;
73 -> 75 ;
76 [label=<mse = 0.0<br/>samples = 1<br/>value = 185.583>, fillcolor="#f3c5a4"] ;
75 -> 76 ;
77 [label=<mse = 0.0<br/>samples = 1<br/>value = 164.75>, fillcolor="#f4ccae"] ;
75 -> 77 ;
78 [label=<H &le; 59.5<br/>mse = 2690.785<br/>samples = 12<br/>value = 253.265>, fillcolor="#efb083"] ;
72 -> 78 ;
79 [label=<T &le; 21.75<br/>mse = 2454.527<br/>samples = 8<br/>value = 275.497>, fillcolor="#eda978"] ;
78 -> 79 ;
80 [label=<Tm &le; 15.1<br/>mse = 1077.531<br/>samples = 5<br/>value = 246.744>, fillcolor="#efb286"] ;
79 -> 80 ;
81 [label=<TM &le; 27.85<br/>mse = 394.754<br/>samples = 3<br/>value = 223.108>, fillcolor="#f1ba92"] ;
80 -> 81 ;
82 [label=<mse = 0.0<br/>samples = 1<br/>value = 248.958>, fillcolor="#efb185"] ;
81 -> 82 ;
83 [label=<TM &le; 28.4<br/>mse = 90.964<br/>samples = 2<br/>value = 210.183>, fillcolor="#f1be98"] ;
81 -> 83 ;
84 [label=<mse = 0.0<br/>samples = 1<br/>value = 219.721>, fillcolor="#f1bb93"] ;
83 -> 84 ;
85 [label=<mse = 0.0<br/>samples = 1<br/>value = 200.646>, fillcolor="#f2c09d"] ;
83 -> 85 ;
86 [label=<VV &le; 6.45<br/>mse = 6.749<br/>samples = 2<br/>value = 282.198>, fillcolor="#eda775"] ;
80 -> 86 ;
87 [label=<mse = 0.0<br/>samples = 1<br/>value = 284.796>, fillcolor="#eda674"] ;
86 -> 87 ;
88 [label=<mse = 0.0<br/>samples = 1<br/>value = 279.6>, fillcolor="#eda876"] ;
86 -> 88 ;
89 [label=<H &le; 51.0<br/>mse = 1075.218<br/>samples = 3<br/>value = 323.418>, fillcolor="#ea9a61"] ;
79 -> 89 ;
90 [label=<VV &le; 6.6<br/>mse = 297.778<br/>samples = 2<br/>value = 302.481>, fillcolor="#eca16b"] ;
89 -> 90 ;
91 [label=<mse = 0.0<br/>samples = 1<br/>value = 319.737>, fillcolor="#ea9b62"] ;
90 -> 91 ;
92 [label=<mse = 0.0<br/>samples = 1<br/>value = 285.225>, fillcolor="#eda673"] ;
90 -> 92 ;
93 [label=<mse = 0.0<br/>samples = 1<br/>value = 365.292>, fillcolor="#e88d4c"] ;
89 -> 93 ;
94 [label=<H &le; 60.5<br/>mse = 197.837<br/>samples = 4<br/>value = 208.802>, fillcolor="#f2be99"] ;
78 -> 94 ;
95 [label=<mse = 0.0<br/>samples = 1<br/>value = 185.5>, fillcolor="#f3c5a4"] ;
94 -> 95 ;
96 [label=<H &le; 62.0<br/>mse = 22.455<br/>samples = 3<br/>value = 216.569>, fillcolor="#f1bc95"] ;
94 -> 96 ;
97 [label=<mse = 0.0<br/>samples = 1<br/>value = 223.208>, fillcolor="#f1b992"] ;
96 -> 97 ;
98 [label=<Tm &le; 15.15<br/>mse = 0.627<br/>samples = 2<br/>value = 213.25>, fillcolor="#f1bd97"] ;
96 -> 98 ;
99 [label=<mse = 0.0<br/>samples = 1<br/>value = 214.042>, fillcolor="#f1bc96"] ;
98 -> 99 ;
100 [label=<mse = 0.0<br/>samples = 1<br/>value = 212.458>, fillcolor="#f1bd97"] ;
98 -> 100 ;
101 [label=<TM &le; 29.2<br/>mse = 2047.265<br/>samples = 7<br/>value = 291.179>, fillcolor="#eca470"] ;
31 -> 101 ;
102 [label=<VV &le; 7.7<br/>mse = 777.988<br/>samples = 4<br/>value = 264.871>, fillcolor="#eeac7d"] ;
101 -> 102 ;
103 [label=<VV &le; 6.6<br/>mse = 29.431<br/>samples = 3<br/>value = 280.744>, fillcolor="#eda876"] ;
102 -> 103 ;
104 [label=<mse = 0.0<br/>samples = 2<br/>value = 276.908>, fillcolor="#eda977"] ;
103 -> 104 ;
105 [label=<mse = 0.0<br/>samples = 1<br/>value = 288.417>, fillcolor="#eca572"] ;
103 -> 105 ;
106 [label=<mse = 0.0<br/>samples = 1<br/>value = 217.25>, fillcolor="#f1bb95"] ;
102 -> 106 ;
107 [label=<V &le; 3.2<br/>mse = 1586.444<br/>samples = 3<br/>value = 326.256>, fillcolor="#ea995f"] ;
101 -> 107 ;
108 [label=<VV &le; 7.3<br/>mse = 454.755<br/>samples = 2<br/>value = 300.925>, fillcolor="#eca16c"] ;
107 -> 108 ;
109 [label=<mse = 0.0<br/>samples = 1<br/>value = 322.25>, fillcolor="#ea9b61"] ;
108 -> 109 ;
110 [label=<mse = 0.0<br/>samples = 1<br/>value = 279.6>, fillcolor="#eda876"] ;
108 -> 110 ;
111 [label=<mse = 0.0<br/>samples = 1<br/>value = 376.917>, fillcolor="#e78a47"] ;
107 -> 111 ;
112 [label=<mse = 0.0<br/>samples = 1<br/>value = 103.0>, fillcolor="#f8dfcd"] ;
30 -> 112 ;
113 [label=<Tm &le; 14.55<br/>mse = 6100.857<br/>samples = 27<br/>value = 196.509>, fillcolor="#f2c29f"] ;
29 -> 113 ;
114 [label=<T &le; 20.65<br/>mse = 812.25<br/>samples = 2<br/>value = 28.5>, fillcolor="#fdf6f1"] ;
113 -> 114 ;
115 [label=<mse = 0.0<br/>samples = 1<br/>value = 0.0>, fillcolor="#ffffff"] ;
114 -> 115 ;
116 [label=<mse = 0.0<br/>samples = 1<br/>value = 57.0>, fillcolor="#fbede3"] ;
114 -> 116 ;
117 [label=<V &le; 5.1<br/>mse = 4085.119<br/>samples = 25<br/>value = 209.95>, fillcolor="#f2be98"] ;
113 -> 117 ;
118 [label=<TM &le; 27.25<br/>mse = 3836.168<br/>samples = 21<br/>value = 197.957>, fillcolor="#f2c19e"] ;
117 -> 118 ;
119 [label=<V &le; 3.8<br/>mse = 949.667<br/>samples = 2<br/>value = 267.642>, fillcolor="#eeac7c"] ;
118 -> 119 ;
120 [label=<mse = 0.0<br/>samples = 1<br/>value = 236.825>, fillcolor="#f0b58b"] ;
119 -> 120 ;
121 [label=<mse = 0.0<br/>samples = 1<br/>value = 298.458>, fillcolor="#eca26d"] ;
119 -> 121 ;
122 [label=<TM &le; 28.7<br/>mse = 3575.044<br/>samples = 19<br/>value = 190.621>, fillcolor="#f3c4a2"] ;
118 -> 122 ;
123 [label=<T &le; 21.55<br/>mse = 1623.075<br/>samples = 8<br/>value = 159.807>, fillcolor="#f5cdb1"] ;
122 -> 123 ;
124 [label=<TM &le; 27.8<br/>mse = 536.704<br/>samples = 6<br/>value = 179.847>, fillcolor="#f3c7a7"] ;
123 -> 124 ;
125 [label=<T &le; 20.9<br/>mse = 316.801<br/>samples = 4<br/>value = 192.438>, fillcolor="#f3c3a1"] ;
124 -> 125 ;
126 [label=<VM &le; 6.5<br/>mse = 91.441<br/>samples = 2<br/>value = 176.479>, fillcolor="#f4c8a9"] ;
125 -> 126 ;
127 [label=<mse = 0.0<br/>samples = 1<br/>value = 166.917>, fillcolor="#f4cbad"] ;
126 -> 127 ;
128 [label=<mse = 0.0<br/>samples = 1<br/>value = 186.042>, fillcolor="#f3c5a4"] ;
126 -> 128 ;
129 [label=<V &le; 4.25<br/>mse = 32.823<br/>samples = 2<br/>value = 208.396>, fillcolor="#f2be99"] ;
125 -> 129 ;
130 [label=<mse = 0.0<br/>samples = 1<br/>value = 214.125>, fillcolor="#f1bc96"] ;
129 -> 130 ;
131 [label=<mse = 0.0<br/>samples = 1<br/>value = 202.667>, fillcolor="#f2c09c"] ;
129 -> 131 ;
132 [label=<Tm &le; 15.5<br/>mse = 25.418<br/>samples = 2<br/>value = 154.667>, fillcolor="#f5cfb3"] ;
124 -> 132 ;
133 [label=<mse = 0.0<br/>samples = 1<br/>value = 149.625>, fillcolor="#f5d0b6"] ;
132 -> 133 ;
134 [label=<mse = 0.0<br/>samples = 1<br/>value = 159.708>, fillcolor="#f5cdb1"] ;
132 -> 134 ;
135 [label=<T &le; 21.75<br/>mse = 63.004<br/>samples = 2<br/>value = 99.688>, fillcolor="#f9e0ce"] ;
123 -> 135 ;
136 [label=<mse = 0.0<br/>samples = 1<br/>value = 107.625>, fillcolor="#f8ddca"] ;
135 -> 136 ;
137 [label=<mse = 0.0<br/>samples = 1<br/>value = 91.75>, fillcolor="#f9e2d2"] ;
135 -> 137 ;
138 [label=<Tm &le; 15.4<br/>mse = 3801.896<br/>samples = 11<br/>value = 213.031>, fillcolor="#f1bd97"] ;
122 -> 138 ;
139 [label=<mse = 0.0<br/>samples = 1<br/>value = 332.708>, fillcolor="#ea975c"] ;
138 -> 139 ;
140 [label=<V &le; 3.6<br/>mse = 2606.604<br/>samples = 10<br/>value = 201.064>, fillcolor="#f2c09d"] ;
138 -> 140 ;
141 [label=<mse = 0.0<br/>samples = 1<br/>value = 288.417>, fillcolor="#eca572"] ;
140 -> 141 ;
142 [label=<TM &le; 28.9<br/>mse = 1954.186<br/>samples = 9<br/>value = 191.358>, fillcolor="#f3c3a1"] ;
140 -> 142 ;
143 [label=<mse = 0.0<br/>samples = 1<br/>value = 288.417>, fillcolor="#eca572"] ;
142 -> 143 ;
144 [label=<T &le; 22.15<br/>mse = 873.715<br/>samples = 8<br/>value = 179.226>, fillcolor="#f3c7a7"] ;
142 -> 144 ;
145 [label=<VV &le; 5.4<br/>mse = 708.115<br/>samples = 6<br/>value = 189.315>, fillcolor="#f3c4a2"] ;
144 -> 145 ;
146 [label=<mse = 0.0<br/>samples = 1<br/>value = 141.417>, fillcolor="#f6d3ba"] ;
145 -> 146 ;
147 [label=<V &le; 4.5<br/>mse = 299.128<br/>samples = 5<br/>value = 198.894>, fillcolor="#f2c19e"] ;
145 -> 147 ;
148 [label=<V &le; 4.05<br/>mse = 28.444<br/>samples = 2<br/>value = 219.458>, fillcolor="#f1bb94"] ;
147 -> 148 ;
149 [label=<mse = 0.0<br/>samples = 1<br/>value = 224.792>, fillcolor="#f1b991"] ;
148 -> 149 ;
150 [label=<mse = 0.0<br/>samples = 1<br/>value = 214.125>, fillcolor="#f1bc96"] ;
148 -> 150 ;
151 [label=<H &le; 52.0<br/>mse = 9.711<br/>samples = 3<br/>value = 185.185>, fillcolor="#f3c5a4"] ;
147 -> 151 ;
152 [label=<mse = 0.0<br/>samples = 1<br/>value = 181.012>, fillcolor="#f3c7a6"] ;
151 -> 152 ;
153 [label=<T &le; 21.3<br/>mse = 1.511<br/>samples = 2<br/>value = 187.271>, fillcolor="#f3c5a3"] ;
151 -> 153 ;
154 [label=<mse = 0.0<br/>samples = 1<br/>value = 186.042>, fillcolor="#f3c5a4"] ;
153 -> 154 ;
155 [label=<mse = 0.0<br/>samples = 1<br/>value = 188.5>, fillcolor="#f3c4a3"] ;
153 -> 155 ;
156 [label=<Tm &le; 16.0<br/>mse = 149.043<br/>samples = 2<br/>value = 148.958>, fillcolor="#f5d1b6"] ;
144 -> 156 ;
157 [label=<mse = 0.0<br/>samples = 1<br/>value = 136.75>, fillcolor="#f6d4bc"] ;
156 -> 157 ;
158 [label=<mse = 0.0<br/>samples = 1<br/>value = 161.167>, fillcolor="#f5cdb0"] ;
156 -> 158 ;
159 [label=<V &le; 5.3<br/>mse = 672.133<br/>samples = 4<br/>value = 272.917>, fillcolor="#edaa79"] ;
117 -> 159 ;
160 [label=<mse = 0.0<br/>samples = 1<br/>value = 315.792>, fillcolor="#eb9d64"] ;
159 -> 160 ;
161 [label=<H &le; 40.0<br/>mse = 79.17<br/>samples = 3<br/>value = 258.625>, fillcolor="#eeae80"] ;
159 -> 161 ;
162 [label=<mse = 0.0<br/>samples = 1<br/>value = 246.042>, fillcolor="#efb287"] ;
161 -> 162 ;
163 [label=<mse = 0.0<br/>samples = 2<br/>value = 264.917>, fillcolor="#eeac7d"] ;
161 -> 163 ;
164 [label=<V &le; 2.9<br/>mse = 6197.147<br/>samples = 87<br/>value = 182.996>, fillcolor="#f3c6a5"] ;
28 -> 164 ;
165 [label=<TM &le; 29.1<br/>mse = 5559.204<br/>samples = 45<br/>value = 202.597>, fillcolor="#f2c09c"] ;
164 -> 165 ;
166 [label=<Tm &le; 16.65<br/>mse = 5180.592<br/>samples = 32<br/>value = 221.67>, fillcolor="#f1ba92"] ;
165 -> 166 ;
167 [label=<mse = 0.0<br/>samples = 1<br/>value = 46.708>, fillcolor="#fcf0e8"] ;
166 -> 167 ;
168 [label=<Tm &le; 18.55<br/>mse = 4328.38<br/>samples = 31<br/>value = 227.314>, fillcolor="#f0b890"] ;
166 -> 168 ;
169 [label=<TM &le; 27.55<br/>mse = 3405.059<br/>samples = 28<br/>value = 234.922>, fillcolor="#f0b68c"] ;
168 -> 169 ;
170 [label=<V &le; 1.5<br/>mse = 124.694<br/>samples = 2<br/>value = 146.333>, fillcolor="#f6d1b7"] ;
169 -> 170 ;
171 [label=<mse = 0.0<br/>samples = 1<br/>value = 157.5>, fillcolor="#f5ceb2"] ;
170 -> 171 ;
172 [label=<mse = 0.0<br/>samples = 1<br/>value = 135.167>, fillcolor="#f6d5bd"] ;
170 -> 172 ;
173 [label=<TM &le; 28.25<br/>mse = 3007.264<br/>samples = 26<br/>value = 241.737>, fillcolor="#efb489"] ;
169 -> 173 ;
174 [label=<Tm &le; 16.9<br/>mse = 4257.658<br/>samples = 12<br/>value = 224.872>, fillcolor="#f1b991"] ;
173 -> 174 ;
175 [label=<mse = 0.0<br/>samples = 1<br/>value = 365.292>, fillcolor="#e88d4c"] ;
174 -> 175 ;
176 [label=<H &le; 71.5<br/>mse = 2689.232<br/>samples = 11<br/>value = 212.106>, fillcolor="#f1bd97"] ;
174 -> 176 ;
177 [label=<H &le; 63.5<br/>mse = 1407.763<br/>samples = 8<br/>value = 187.906>, fillcolor="#f3c4a3"] ;
176 -> 177 ;
178 [label=<mse = 0.0<br/>samples = 1<br/>value = 91.75>, fillcolor="#f9e2d2"] ;
177 -> 178 ;
179 [label=<V &le; 2.3<br/>mse = 99.317<br/>samples = 7<br/>value = 201.643>, fillcolor="#f2c09c"] ;
177 -> 179 ;
180 [label=<VM &le; 4.45<br/>mse = 12.735<br/>samples = 4<br/>value = 193.417>, fillcolor="#f3c3a0"] ;
179 -> 180 ;
181 [label=<V &le; 1.0<br/>mse = 0.011<br/>samples = 2<br/>value = 196.646>, fillcolor="#f2c29f"] ;
180 -> 181 ;
182 [label=<mse = 0.0<br/>samples = 1<br/>value = 196.542>, fillcolor="#f2c29f"] ;
181 -> 182 ;
183 [label=<mse = 0.0<br/>samples = 1<br/>value = 196.75>, fillcolor="#f2c29f"] ;
181 -> 183 ;
184 [label=<H &le; 69.5<br/>mse = 4.605<br/>samples = 2<br/>value = 190.188>, fillcolor="#f3c4a2"] ;
180 -> 184 ;
185 [label=<mse = 0.0<br/>samples = 1<br/>value = 192.333>, fillcolor="#f3c3a1"] ;
184 -> 185 ;
186 [label=<mse = 0.0<br/>samples = 1<br/>value = 188.042>, fillcolor="#f3c4a3"] ;
184 -> 186 ;
187 [label=<Tm &le; 18.25<br/>mse = 4.23<br/>samples = 3<br/>value = 212.611>, fillcolor="#f1bd97"] ;
179 -> 187 ;
188 [label=<TM &le; 28.15<br/>mse = 0.085<br/>samples = 2<br/>value = 211.167>, fillcolor="#f1bd98"] ;
187 -> 188 ;
189 [label=<mse = 0.0<br/>samples = 1<br/>value = 211.458>, fillcolor="#f1bd97"] ;
188 -> 189 ;
190 [label=<mse = 0.0<br/>samples = 1<br/>value = 210.875>, fillcolor="#f1bd98"] ;
188 -> 190 ;
191 [label=<mse = 0.0<br/>samples = 1<br/>value = 215.5>, fillcolor="#f1bc96"] ;
187 -> 191 ;
192 [label=<V &le; 1.5<br/>mse = 380.315<br/>samples = 3<br/>value = 276.639>, fillcolor="#eda978"] ;
176 -> 192 ;
193 [label=<mse = 0.0<br/>samples = 1<br/>value = 302.458>, fillcolor="#eca16b"] ;
192 -> 193 ;
194 [label=<V &le; 2.35<br/>mse = 70.49<br/>samples = 2<br/>value = 263.729>, fillcolor="#eead7e"] ;
192 -> 194 ;
195 [label=<mse = 0.0<br/>samples = 1<br/>value = 272.125>, fillcolor="#eeaa7a"] ;
194 -> 195 ;
196 [label=<mse = 0.0<br/>samples = 1<br/>value = 255.333>, fillcolor="#efaf82"] ;
194 -> 196 ;
197 [label=<VM &le; 4.45<br/>mse = 1482.717<br/>samples = 14<br/>value = 256.193>, fillcolor="#efaf82"] ;
173 -> 197 ;
198 [label=<VV &le; 7.3<br/>mse = 1378.005<br/>samples = 8<br/>value = 235.572>, fillcolor="#f0b68c"] ;
197 -> 198 ;
199 [label=<Tm &le; 16.95<br/>mse = 664.361<br/>samples = 7<br/>value = 224.904>, fillcolor="#f1b991"] ;
198 -> 199 ;
200 [label=<mse = 0.0<br/>samples = 1<br/>value = 166.708>, fillcolor="#f4cbad"] ;
199 -> 200 ;
201 [label=<TM &le; 28.9<br/>mse = 116.566<br/>samples = 6<br/>value = 234.603>, fillcolor="#f0b68c"] ;
199 -> 201 ;
202 [label=<V &le; 0.5<br/>mse = 21.271<br/>samples = 5<br/>value = 230.157>, fillcolor="#f0b78e"] ;
201 -> 202 ;
203 [label=<Tm &le; 17.25<br/>mse = 3.285<br/>samples = 2<br/>value = 225.188>, fillcolor="#f1b991"] ;
202 -> 203 ;
204 [label=<mse = 0.0<br/>samples = 1<br/>value = 223.375>, fillcolor="#f1b992"] ;
203 -> 204 ;
205 [label=<mse = 0.0<br/>samples = 1<br/>value = 227.0>, fillcolor="#f0b890"] ;
203 -> 205 ;
206 [label=<T &le; 21.35<br/>mse = 5.825<br/>samples = 3<br/>value = 233.469>, fillcolor="#f0b68d"] ;
202 -> 206 ;
207 [label=<mse = 0.0<br/>samples = 1<br/>value = 236.825>, fillcolor="#f0b58b"] ;
206 -> 207 ;
208 [label=<H &le; 70.5<br/>mse = 0.293<br/>samples = 2<br/>value = 231.792>, fillcolor="#f0b78e"] ;
206 -> 208 ;
209 [label=<mse = 0.0<br/>samples = 1<br/>value = 232.333>, fillcolor="#f0b78d"] ;
208 -> 209 ;
210 [label=<mse = 0.0<br/>samples = 1<br/>value = 231.25>, fillcolor="#f0b78e"] ;
208 -> 210 ;
211 [label=<mse = 0.0<br/>samples = 1<br/>value = 256.833>, fillcolor="#eeaf81"] ;
201 -> 211 ;
212 [label=<mse = 0.0<br/>samples = 1<br/>value = 310.25>, fillcolor="#eb9e67"] ;
198 -> 212 ;
213 [label=<VV &le; 6.75<br/>mse = 299.411<br/>samples = 6<br/>value = 283.688>, fillcolor="#eda774"] ;
197 -> 213 ;
214 [label=<T &le; 22.55<br/>mse = 128.678<br/>samples = 4<br/>value = 292.708>, fillcolor="#eca470"] ;
213 -> 214 ;
215 [label=<Tm &le; 16.85<br/>mse = 2.571<br/>samples = 3<br/>value = 286.208>, fillcolor="#eda673"] ;
214 -> 215 ;
216 [label=<mse = 0.0<br/>samples = 1<br/>value = 284.167>, fillcolor="#eda674"] ;
215 -> 216 ;
217 [label=<T &le; 21.9<br/>mse = 0.73<br/>samples = 2<br/>value = 287.229>, fillcolor="#eda672"] ;
215 -> 217 ;
218 [label=<mse = 0.0<br/>samples = 1<br/>value = 288.083>, fillcolor="#eca572"] ;
217 -> 218 ;
219 [label=<mse = 0.0<br/>samples = 1<br/>value = 286.375>, fillcolor="#eda673"] ;
217 -> 219 ;
220 [label=<mse = 0.0<br/>samples = 1<br/>value = 312.208>, fillcolor="#eb9e66"] ;
214 -> 220 ;
221 [label=<V &le; 1.95<br/>mse = 152.625<br/>samples = 2<br/>value = 265.646>, fillcolor="#eeac7d"] ;
213 -> 221 ;
222 [label=<mse = 0.0<br/>samples = 1<br/>value = 278.0>, fillcolor="#eda877"] ;
221 -> 222 ;
223 [label=<mse = 0.0<br/>samples = 1<br/>value = 253.292>, fillcolor="#efb083"] ;
221 -> 223 ;
224 [label=<VV &le; 6.6<br/>mse = 7363.568<br/>samples = 3<br/>value = 156.306>, fillcolor="#f5ceb2"] ;
168 -> 224 ;
225 [label=<H &le; 74.0<br/>mse = 2252.293<br/>samples = 2<br/>value = 102.167>, fillcolor="#f8dfcd"] ;
224 -> 225 ;
226 [label=<mse = 0.0<br/>samples = 1<br/>value = 149.625>, fillcolor="#f5d0b6"] ;
225 -> 226 ;
227 [label=<mse = 0.0<br/>samples = 1<br/>value = 54.708>, fillcolor="#fbeee4"] ;
225 -> 227 ;
228 [label=<mse = 0.0<br/>samples = 1<br/>value = 264.583>, fillcolor="#eead7d"] ;
224 -> 228 ;
229 [label=<TM &le; 30.75<br/>mse = 3391.515<br/>samples = 13<br/>value = 155.648>, fillcolor="#f5cfb3"] ;
165 -> 229 ;
230 [label=<T &le; 23.1<br/>mse = 2709.408<br/>samples = 11<br/>value = 169.028>, fillcolor="#f4caac"] ;
229 -> 230 ;
231 [label=<TM &le; 29.8<br/>mse = 1572.301<br/>samples = 10<br/>value = 157.714>, fillcolor="#f5ceb2"] ;
230 -> 231 ;
232 [label=<T &le; 22.85<br/>mse = 835.945<br/>samples = 8<br/>value = 143.387>, fillcolor="#f6d2b9"] ;
231 -> 232 ;
233 [label=<Tm &le; 18.75<br/>mse = 406.444<br/>samples = 6<br/>value = 130.097>, fillcolor="#f7d6bf"] ;
232 -> 233 ;
234 [label=<VM &le; 6.5<br/>mse = 273.131<br/>samples = 5<br/>value = 124.117>, fillcolor="#f7d8c2"] ;
233 -> 234 ;
235 [label=<Tm &le; 16.55<br/>mse = 180.74<br/>samples = 4<br/>value = 118.448>, fillcolor="#f7dac5"] ;
234 -> 235 ;
236 [label=<mse = 0.0<br/>samples = 1<br/>value = 141.417>, fillcolor="#f6d3ba"] ;
235 -> 236 ;
237 [label=<TM &le; 29.4<br/>mse = 6.514<br/>samples = 3<br/>value = 110.792>, fillcolor="#f8dcc9"] ;
235 -> 237 ;
238 [label=<V &le; 1.6<br/>mse = 2.25<br/>samples = 2<br/>value = 112.375>, fillcolor="#f8dcc8"] ;
237 -> 238 ;
239 [label=<mse = 0.0<br/>samples = 1<br/>value = 113.875>, fillcolor="#f8dcc7"] ;
238 -> 239 ;
240 [label=<mse = 0.0<br/>samples = 1<br/>value = 110.875>, fillcolor="#f8dcc9"] ;
238 -> 240 ;
241 [label=<mse = 0.0<br/>samples = 1<br/>value = 107.625>, fillcolor="#f8ddca"] ;
237 -> 241 ;
242 [label=<mse = 0.0<br/>samples = 1<br/>value = 146.792>, fillcolor="#f6d1b7"] ;
234 -> 242 ;
243 [label=<mse = 0.0<br/>samples = 1<br/>value = 160.0>, fillcolor="#f5cdb1"] ;
233 -> 243 ;
244 [label=<VV &le; 5.9<br/>mse = 5.034<br/>samples = 2<br/>value = 183.256>, fillcolor="#f3c6a5"] ;
232 -> 244 ;
245 [label=<mse = 0.0<br/>samples = 1<br/>value = 181.012>, fillcolor="#f3c7a6"] ;
244 -> 245 ;
246 [label=<mse = 0.0<br/>samples = 1<br/>value = 185.5>, fillcolor="#f3c5a4"] ;
244 -> 246 ;
247 [label=<V &le; 1.95<br/>mse = 412.598<br/>samples = 2<br/>value = 215.021>, fillcolor="#f1bc96"] ;
231 -> 247 ;
248 [label=<mse = 0.0<br/>samples = 1<br/>value = 194.708>, fillcolor="#f2c2a0"] ;
247 -> 248 ;
249 [label=<mse = 0.0<br/>samples = 1<br/>value = 235.333>, fillcolor="#f0b68c"] ;
247 -> 249 ;
250 [label=<mse = 0.0<br/>samples = 1<br/>value = 282.167>, fillcolor="#eda775"] ;
230 -> 250 ;
251 [label=<H &le; 57.5<br/>mse = 743.698<br/>samples = 2<br/>value = 82.063>, fillcolor="#fae5d7"] ;
229 -> 251 ;
252 [label=<mse = 0.0<br/>samples = 1<br/>value = 109.333>, fillcolor="#f8ddc9"] ;
251 -> 252 ;
253 [label=<mse = 0.0<br/>samples = 1<br/>value = 54.792>, fillcolor="#fbeee4"] ;
251 -> 253 ;
254 [label=<H &le; 65.5<br/>mse = 6027.945<br/>samples = 42<br/>value = 161.995>, fillcolor="#f5cdb0"] ;
164 -> 254 ;
255 [label=<T &le; 21.9<br/>mse = 4062.385<br/>samples = 25<br/>value = 193.539>, fillcolor="#f3c3a0"] ;
254 -> 255 ;
256 [label=<TM &le; 29.1<br/>mse = 2879.888<br/>samples = 2<br/>value = 100.373>, fillcolor="#f9e0ce"] ;
255 -> 256 ;
257 [label=<mse = 0.0<br/>samples = 1<br/>value = 154.038>, fillcolor="#f5cfb4"] ;
256 -> 257 ;
258 [label=<mse = 0.0<br/>samples = 1<br/>value = 46.708>, fillcolor="#fcf0e8"] ;
256 -> 258 ;
259 [label=<H &le; 64.5<br/>mse = 3344.806<br/>samples = 23<br/>value = 201.64>, fillcolor="#f2c09c"] ;
255 -> 259 ;
260 [label=<VV &le; 6.6<br/>mse = 2289.798<br/>samples = 21<br/>value = 190.725>, fillcolor="#f3c4a2"] ;
259 -> 260 ;
261 [label=<TM &le; 29.3<br/>mse = 2027.591<br/>samples = 9<br/>value = 210.987>, fillcolor="#f1bd98"] ;
260 -> 261 ;
262 [label=<H &le; 60.5<br/>mse = 1475.955<br/>samples = 5<br/>value = 240.133>, fillcolor="#f0b489"] ;
261 -> 262 ;
263 [label=<V &le; 4.05<br/>mse = 1.0<br/>samples = 2<br/>value = 283.167>, fillcolor="#eda774"] ;
262 -> 263 ;
264 [label=<mse = 0.0<br/>samples = 1<br/>value = 284.167>, fillcolor="#eda674"] ;
263 -> 264 ;
265 [label=<mse = 0.0<br/>samples = 1<br/>value = 282.167>, fillcolor="#eda775"] ;
263 -> 265 ;
266 [label=<V &le; 3.5<br/>mse = 401.628<br/>samples = 3<br/>value = 211.444>, fillcolor="#f1bd97"] ;
262 -> 266 ;
267 [label=<mse = 0.0<br/>samples = 1<br/>value = 239.125>, fillcolor="#f0b58a"] ;
266 -> 267 ;
268 [label=<H &le; 63.5<br/>mse = 27.782<br/>samples = 2<br/>value = 197.604>, fillcolor="#f2c19e"] ;
266 -> 268 ;
269 [label=<mse = 0.0<br/>samples = 1<br/>value = 202.875>, fillcolor="#f2c09c"] ;
268 -> 269 ;
270 [label=<mse = 0.0<br/>samples = 1<br/>value = 192.333>, fillcolor="#f3c3a1"] ;
268 -> 270 ;
271 [label=<H &le; 51.5<br/>mse = 327.975<br/>samples = 4<br/>value = 174.555>, fillcolor="#f4c9aa"] ;
261 -> 271 ;
272 [label=<T &le; 23.15<br/>mse = 43.066<br/>samples = 2<br/>value = 158.438>, fillcolor="#f5ceb1"] ;
271 -> 272 ;
273 [label=<mse = 0.0<br/>samples = 1<br/>value = 151.875>, fillcolor="#f5d0b5"] ;
272 -> 273 ;
274 [label=<mse = 0.0<br/>samples = 1<br/>value = 165.0>, fillcolor="#f4ccae"] ;
272 -> 274 ;
275 [label=<H &le; 57.0<br/>mse = 93.324<br/>samples = 2<br/>value = 190.673>, fillcolor="#f3c4a2"] ;
271 -> 275 ;
276 [label=<mse = 0.0<br/>samples = 1<br/>value = 181.012>, fillcolor="#f3c7a6"] ;
275 -> 276 ;
277 [label=<mse = 0.0<br/>samples = 1<br/>value = 200.333>, fillcolor="#f2c19d"] ;
275 -> 277 ;
278 [label=<TM &le; 30.35<br/>mse = 1947.581<br/>samples = 12<br/>value = 175.528>, fillcolor="#f4c8a9"] ;
260 -> 278 ;
279 [label=<Tm &le; 16.95<br/>mse = 1184.591<br/>samples = 7<br/>value = 148.877>, fillcolor="#f5d1b6"] ;
278 -> 279 ;
280 [label=<mse = 0.0<br/>samples = 1<br/>value = 202.917>, fillcolor="#f2c09c"] ;
279 -> 280 ;
281 [label=<Tm &le; 18.15<br/>mse = 814.185<br/>samples = 6<br/>value = 139.87>, fillcolor="#f6d3bb"] ;
279 -> 281 ;
282 [label=<VV &le; 7.3<br/>mse = 255.288<br/>samples = 5<br/>value = 128.903>, fillcolor="#f7d7c0"] ;
281 -> 282 ;
283 [label=<V &le; 3.5<br/>mse = 45.992<br/>samples = 3<br/>value = 117.228>, fillcolor="#f7dac6"] ;
282 -> 283 ;
284 [label=<mse = 0.0<br/>samples = 1<br/>value = 125.892>, fillcolor="#f7d8c1"] ;
283 -> 284 ;
285 [label=<H &le; 51.5<br/>mse = 12.691<br/>samples = 2<br/>value = 112.896>, fillcolor="#f8dcc8"] ;
283 -> 285 ;
286 [label=<mse = 0.0<br/>samples = 1<br/>value = 109.333>, fillcolor="#f8ddc9"] ;
285 -> 286 ;
287 [label=<mse = 0.0<br/>samples = 1<br/>value = 116.458>, fillcolor="#f8dbc6"] ;
285 -> 287 ;
288 [label=<VM &le; 6.5<br/>mse = 58.109<br/>samples = 2<br/>value = 146.415>, fillcolor="#f6d1b7"] ;
282 -> 288 ;
289 [label=<mse = 0.0<br/>samples = 1<br/>value = 138.792>, fillcolor="#f6d4bb"] ;
288 -> 289 ;
290 [label=<mse = 0.0<br/>samples = 1<br/>value = 154.038>, fillcolor="#f5cfb4"] ;
288 -> 290 ;
291 [label=<mse = 0.0<br/>samples = 1<br/>value = 194.708>, fillcolor="#f2c2a0"] ;
281 -> 291 ;
292 [label=<H &le; 47.5<br/>mse = 629.18<br/>samples = 5<br/>value = 212.84>, fillcolor="#f1bd97"] ;
278 -> 292 ;
293 [label=<Tm &le; 17.75<br/>mse = 202.605<br/>samples = 3<br/>value = 230.917>, fillcolor="#f0b78e"] ;
292 -> 293 ;
294 [label=<VM &le; 11.85<br/>mse = 5.157<br/>samples = 2<br/>value = 220.938>, fillcolor="#f1ba93"] ;
293 -> 294 ;
295 [label=<mse = 0.0<br/>samples = 1<br/>value = 223.208>, fillcolor="#f1b992"] ;
294 -> 295 ;
296 [label=<mse = 0.0<br/>samples = 1<br/>value = 218.667>, fillcolor="#f1bb94"] ;
294 -> 296 ;
297 [label=<mse = 0.0<br/>samples = 1<br/>value = 250.875>, fillcolor="#efb184"] ;
293 -> 297 ;
298 [label=<TM &le; 31.15<br/>mse = 43.67<br/>samples = 2<br/>value = 185.725>, fillcolor="#f3c5a4"] ;
292 -> 298 ;
299 [label=<mse = 0.0<br/>samples = 1<br/>value = 192.333>, fillcolor="#f3c3a1"] ;
298 -> 299 ;
300 [label=<mse = 0.0<br/>samples = 1<br/>value = 179.117>, fillcolor="#f3c7a7"] ;
298 -> 300 ;
301 [label=<T &le; 22.45<br/>mse = 36.0<br/>samples = 2<br/>value = 316.25>, fillcolor="#eb9c64"] ;
259 -> 301 ;
302 [label=<mse = 0.0<br/>samples = 1<br/>value = 322.25>, fillcolor="#ea9b61"] ;
301 -> 302 ;
303 [label=<mse = 0.0<br/>samples = 1<br/>value = 310.25>, fillcolor="#eb9e67"] ;
301 -> 303 ;
304 [label=<Tm &le; 18.75<br/>mse = 5303.292<br/>samples = 17<br/>value = 115.606>, fillcolor="#f8dbc6"] ;
254 -> 304 ;
305 [label=<Tm &le; 17.05<br/>mse = 4303.219<br/>samples = 15<br/>value = 129.726>, fillcolor="#f7d7c0"] ;
304 -> 305 ;
306 [label=<T &le; 22.55<br/>mse = 4060.006<br/>samples = 3<br/>value = 45.056>, fillcolor="#fcf1e9"] ;
305 -> 306 ;
307 [label=<mse = 0.0<br/>samples = 2<br/>value = 0.0>, fillcolor="#ffffff"] ;
306 -> 307 ;
308 [label=<mse = 0.0<br/>samples = 1<br/>value = 135.167>, fillcolor="#f6d5bd"] ;
306 -> 308 ;
309 [label=<Tm &le; 17.35<br/>mse = 2123.692<br/>samples = 12<br/>value = 150.893>, fillcolor="#f5d0b5"] ;
305 -> 309 ;
310 [label=<mse = 0.0<br/>samples = 1<br/>value = 260.167>, fillcolor="#eeae80"] ;
309 -> 310 ;
311 [label=<Tm &le; 18.35<br/>mse = 1132.558<br/>samples = 11<br/>value = 140.959>, fillcolor="#f6d3ba"] ;
309 -> 311 ;
312 [label=<VV &le; 5.95<br/>mse = 377.561<br/>samples = 7<br/>value = 123.258>, fillcolor="#f7d9c3"] ;
311 -> 312 ;
313 [label=<T &le; 21.65<br/>mse = 436.112<br/>samples = 3<br/>value = 137.532>, fillcolor="#f6d4bc"] ;
312 -> 313 ;
314 [label=<mse = 0.0<br/>samples = 1<br/>value = 108.0>, fillcolor="#f8ddca"] ;
313 -> 314 ;
315 [label=<VV &le; 4.8<br/>mse = 0.066<br/>samples = 2<br/>value = 152.298>, fillcolor="#f5d0b4"] ;
313 -> 315 ;
316 [label=<mse = 0.0<br/>samples = 1<br/>value = 152.554>, fillcolor="#f5cfb4"] ;
315 -> 316 ;
317 [label=<mse = 0.0<br/>samples = 1<br/>value = 152.042>, fillcolor="#f5d0b5"] ;
315 -> 317 ;
318 [label=<VV &le; 6.85<br/>mse = 66.223<br/>samples = 4<br/>value = 112.552>, fillcolor="#f8dcc8"] ;
312 -> 318 ;
319 [label=<V &le; 3.95<br/>mse = 17.34<br/>samples = 3<br/>value = 116.764>, fillcolor="#f7dbc6"] ;
318 -> 319 ;
320 [label=<mse = 0.0<br/>samples = 2<br/>value = 119.708>, fillcolor="#f7dac4"] ;
319 -> 320 ;
321 [label=<mse = 0.0<br/>samples = 1<br/>value = 110.875>, fillcolor="#f8dcc9"] ;
319 -> 321 ;
322 [label=<mse = 0.0<br/>samples = 1<br/>value = 99.917>, fillcolor="#f9e0ce"] ;
318 -> 322 ;
323 [label=<TM &le; 27.15<br/>mse = 945.801<br/>samples = 4<br/>value = 171.937>, fillcolor="#f4c9ab"] ;
311 -> 323 ;
324 [label=<mse = 0.0<br/>samples = 1<br/>value = 121.333>, fillcolor="#f7d9c4"] ;
323 -> 324 ;
325 [label=<T &le; 22.1<br/>mse = 122.942<br/>samples = 3<br/>value = 188.806>, fillcolor="#f3c4a3"] ;
323 -> 325 ;
326 [label=<TM &le; 27.65<br/>mse = 20.627<br/>samples = 2<br/>value = 181.417>, fillcolor="#f3c6a6"] ;
325 -> 326 ;
327 [label=<mse = 0.0<br/>samples = 1<br/>value = 176.875>, fillcolor="#f4c8a8"] ;
326 -> 327 ;
328 [label=<mse = 0.0<br/>samples = 1<br/>value = 185.958>, fillcolor="#f3c5a4"] ;
326 -> 328 ;
329 [label=<mse = 0.0<br/>samples = 1<br/>value = 203.583>, fillcolor="#f2c09b"] ;
325 -> 329 ;
330 [label=<V &le; 5.2<br/>mse = 94.252<br/>samples = 2<br/>value = 9.708>, fillcolor="#fefcfa"] ;
304 -> 330 ;
331 [label=<mse = 0.0<br/>samples = 1<br/>value = 0.0>, fillcolor="#ffffff"] ;
330 -> 331 ;
332 [label=<mse = 0.0<br/>samples = 1<br/>value = 19.417>, fillcolor="#fef9f5"] ;
330 -> 332 ;
333 [label=<H &le; 59.0<br/>mse = 4787.593<br/>samples = 44<br/>value = 108.522>, fillcolor="#f8ddca"] ;
1 -> 333 ;
334 [label=<V &le; 2.9<br/>mse = 4663.319<br/>samples = 39<br/>value = 116.562>, fillcolor="#f8dbc6"] ;
333 -> 334 ;
335 [label=<VM &le; 6.5<br/>mse = 4827.589<br/>samples = 19<br/>value = 137.398>, fillcolor="#f6d4bc"] ;
334 -> 335 ;
336 [label=<H &le; 50.5<br/>mse = 3146.079<br/>samples = 18<br/>value = 127.268>, fillcolor="#f7d7c1"] ;
335 -> 336 ;
337 [label=<T &le; 25.05<br/>mse = 2877.185<br/>samples = 16<br/>value = 135.833>, fillcolor="#f6d5bd"] ;
336 -> 337 ;
338 [label=<V &le; 2.1<br/>mse = 2922.014<br/>samples = 11<br/>value = 150.348>, fillcolor="#f5d0b5"] ;
337 -> 338 ;
339 [label=<TM &le; 32.05<br/>mse = 1421.754<br/>samples = 10<br/>value = 137.582>, fillcolor="#f6d4bc"] ;
338 -> 339 ;
340 [label=<T &le; 23.85<br/>mse = 879.928<br/>samples = 5<br/>value = 110.442>, fillcolor="#f8ddc9"] ;
339 -> 340 ;
341 [label=<mse = 0.0<br/>samples = 1<br/>value = 56.458>, fillcolor="#fbede3"] ;
340 -> 341 ;
342 [label=<H &le; 49.0<br/>mse = 189.223<br/>samples = 4<br/>value = 123.937>, fillcolor="#f7d8c2"] ;
340 -> 342 ;
343 [label=<VV &le; 6.6<br/>mse = 0.191<br/>samples = 2<br/>value = 136.271>, fillcolor="#f6d5bc"] ;
342 -> 343 ;
344 [label=<mse = 0.0<br/>samples = 1<br/>value = 135.833>, fillcolor="#f6d5bd"] ;
343 -> 344 ;
345 [label=<mse = 0.0<br/>samples = 1<br/>value = 136.708>, fillcolor="#f6d4bc"] ;
343 -> 345 ;
346 [label=<V &le; 0.85<br/>mse = 74.032<br/>samples = 2<br/>value = 111.604>, fillcolor="#f8dcc8"] ;
342 -> 346 ;
347 [label=<mse = 0.0<br/>samples = 1<br/>value = 103.0>, fillcolor="#f8dfcd"] ;
346 -> 347 ;
348 [label=<mse = 0.0<br/>samples = 1<br/>value = 120.208>, fillcolor="#f7dac4"] ;
346 -> 348 ;
349 [label=<H &le; 33.5<br/>mse = 490.33<br/>samples = 5<br/>value = 164.723>, fillcolor="#f4ccae"] ;
339 -> 349 ;
350 [label=<mse = 0.0<br/>samples = 1<br/>value = 197.083>, fillcolor="#f2c29f"] ;
349 -> 350 ;
351 [label=<H &le; 43.5<br/>mse = 285.672<br/>samples = 4<br/>value = 156.633>, fillcolor="#f5ceb2"] ;
349 -> 351 ;
352 [label=<TM &le; 32.9<br/>mse = 156.23<br/>samples = 3<br/>value = 149.139>, fillcolor="#f5d1b6"] ;
351 -> 352 ;
353 [label=<VV &le; 6.6<br/>mse = 11.532<br/>samples = 2<br/>value = 140.521>, fillcolor="#f6d3ba"] ;
352 -> 353 ;
354 [label=<mse = 0.0<br/>samples = 1<br/>value = 137.125>, fillcolor="#f6d4bc"] ;
353 -> 354 ;
355 [label=<mse = 0.0<br/>samples = 1<br/>value = 143.917>, fillcolor="#f6d2b9"] ;
353 -> 355 ;
356 [label=<mse = 0.0<br/>samples = 1<br/>value = 166.375>, fillcolor="#f4cbae"] ;
352 -> 356 ;
357 [label=<mse = 0.0<br/>samples = 1<br/>value = 179.117>, fillcolor="#f3c7a7"] ;
351 -> 357 ;
358 [label=<mse = 0.0<br/>samples = 1<br/>value = 278.0>, fillcolor="#eda877"] ;
338 -> 358 ;
359 [label=<T &le; 25.65<br/>mse = 1295.355<br/>samples = 5<br/>value = 103.9>, fillcolor="#f8dfcc"] ;
337 -> 359 ;
360 [label=<Tm &le; 18.55<br/>mse = 694.946<br/>samples = 3<br/>value = 81.056>, fillcolor="#fae6d7"] ;
359 -> 360 ;
361 [label=<V &le; 2.05<br/>mse = 41.71<br/>samples = 2<br/>value = 62.792>, fillcolor="#fbebe0"] ;
360 -> 361 ;
362 [label=<mse = 0.0<br/>samples = 1<br/>value = 56.333>, fillcolor="#fbede3"] ;
361 -> 362 ;
363 [label=<mse = 0.0<br/>samples = 1<br/>value = 69.25>, fillcolor="#fbe9dd"] ;
361 -> 363 ;
364 [label=<mse = 0.0<br/>samples = 1<br/>value = 117.583>, fillcolor="#f7dac5"] ;
360 -> 364 ;
365 [label=<H &le; 32.0<br/>mse = 238.96<br/>samples = 2<br/>value = 138.167>, fillcolor="#f6d4bb"] ;
359 -> 365 ;
366 [label=<mse = 0.0<br/>samples = 1<br/>value = 153.625>, fillcolor="#f5cfb4"] ;
365 -> 366 ;
367 [label=<mse = 0.0<br/>samples = 1<br/>value = 122.708>, fillcolor="#f7d9c3"] ;
365 -> 367 ;
368 [label=<H &le; 53.0<br/>mse = 15.668<br/>samples = 2<br/>value = 58.75>, fillcolor="#fbede2"] ;
336 -> 368 ;
369 [label=<mse = 0.0<br/>samples = 1<br/>value = 62.708>, fillcolor="#fbebe0"] ;
368 -> 369 ;
370 [label=<mse = 0.0<br/>samples = 1<br/>value = 54.792>, fillcolor="#fbeee4"] ;
368 -> 370 ;
371 [label=<mse = 0.0<br/>samples = 1<br/>value = 319.737>, fillcolor="#ea9b62"] ;
335 -> 371 ;
372 [label=<V &le; 4.25<br/>mse = 3703.057<br/>samples = 20<br/>value = 96.769>, fillcolor="#f9e1d0"] ;
334 -> 372 ;
373 [label=<Tm &le; 17.75<br/>mse = 1708.974<br/>samples = 10<br/>value = 53.192>, fillcolor="#fceee5"] ;
372 -> 373 ;
374 [label=<V &le; 3.7<br/>mse = 1311.943<br/>samples = 8<br/>value = 66.031>, fillcolor="#fbeadf"] ;
373 -> 374 ;
375 [label=<Tm &le; 17.0<br/>mse = 828.233<br/>samples = 7<br/>value = 75.19>, fillcolor="#fae8da"] ;
374 -> 375 ;
376 [label=<Tm &le; 16.75<br/>mse = 588.712<br/>samples = 5<br/>value = 62.958>, fillcolor="#fbebe0"] ;
375 -> 376 ;
377 [label=<H &le; 36.5<br/>mse = 191.183<br/>samples = 4<br/>value = 73.396>, fillcolor="#fae8db"] ;
376 -> 377 ;
378 [label=<TM &le; 31.35<br/>mse = 77.503<br/>samples = 3<br/>value = 66.736>, fillcolor="#fbeade"] ;
377 -> 378 ;
379 [label=<mse = 0.0<br/>samples = 1<br/>value = 54.792>, fillcolor="#fbeee4"] ;
378 -> 379 ;
380 [label=<H &le; 32.0<br/>mse = 9.252<br/>samples = 2<br/>value = 72.708>, fillcolor="#fae8db"] ;
378 -> 380 ;
381 [label=<mse = 0.0<br/>samples = 1<br/>value = 69.667>, fillcolor="#fbe9dd"] ;
380 -> 381 ;
382 [label=<mse = 0.0<br/>samples = 1<br/>value = 75.75>, fillcolor="#fae7da"] ;
380 -> 382 ;
383 [label=<mse = 0.0<br/>samples = 1<br/>value = 93.375>, fillcolor="#f9e2d1"] ;
377 -> 383 ;
384 [label=<mse = 0.0<br/>samples = 1<br/>value = 21.208>, fillcolor="#fef8f5"] ;
376 -> 384 ;
385 [label=<TM &le; 32.4<br/>mse = 117.813<br/>samples = 2<br/>value = 105.771>, fillcolor="#f8decb"] ;
375 -> 385 ;
386 [label=<mse = 0.0<br/>samples = 1<br/>value = 94.917>, fillcolor="#f9e1d1"] ;
385 -> 386 ;
387 [label=<mse = 0.0<br/>samples = 1<br/>value = 116.625>, fillcolor="#f8dbc6"] ;
385 -> 387 ;
388 [label=<mse = 0.0<br/>samples = 1<br/>value = 1.917>, fillcolor="#fffefe"] ;
374 -> 388 ;
389 [label=<mse = -0.0<br/>samples = 2<br/>value = 1.833>, fillcolor="#fffefe"] ;
373 -> 389 ;
390 [label=<VV &le; 6.45<br/>mse = 1899.216<br/>samples = 10<br/>value = 140.346>, fillcolor="#f6d3ba"] ;
372 -> 390 ;
391 [label=<mse = 0.0<br/>samples = 1<br/>value = 231.125>, fillcolor="#f0b78e"] ;
390 -> 391 ;
392 [label=<VM &le; 10.25<br/>mse = 1092.85<br/>samples = 9<br/>value = 130.259>, fillcolor="#f7d6bf"] ;
390 -> 392 ;
393 [label=<Tm &le; 17.05<br/>mse = 340.51<br/>samples = 7<br/>value = 118.714>, fillcolor="#f7dac5"] ;
392 -> 393 ;
394 [label=<mse = 0.0<br/>samples = 1<br/>value = 79.833>, fillcolor="#fae6d8"] ;
393 -> 394 ;
395 [label=<Tm &le; 18.25<br/>mse = 103.315<br/>samples = 6<br/>value = 125.194>, fillcolor="#f7d8c2"] ;
393 -> 395 ;
396 [label=<V &le; 5.3<br/>mse = 52.531<br/>samples = 3<br/>value = 133.375>, fillcolor="#f6d5be"] ;
395 -> 396 ;
397 [label=<mse = 0.0<br/>samples = 1<br/>value = 123.125>, fillcolor="#f7d9c3"] ;
396 -> 397 ;
398 [label=<mse = 0.0<br/>samples = 2<br/>value = 138.5>, fillcolor="#f6d4bb"] ;
396 -> 398 ;
399 [label=<TM &le; 33.0<br/>mse = 20.255<br/>samples = 3<br/>value = 117.014>, fillcolor="#f7dbc6"] ;
395 -> 399 ;
400 [label=<H &le; 41.5<br/>mse = 0.562<br/>samples = 2<br/>value = 120.167>, fillcolor="#f7dac4"] ;
399 -> 400 ;
401 [label=<mse = 0.0<br/>samples = 1<br/>value = 120.917>, fillcolor="#f7d9c4"] ;
400 -> 401 ;
402 [label=<mse = 0.0<br/>samples = 1<br/>value = 119.417>, fillcolor="#f7dac5"] ;
400 -> 402 ;
403 [label=<mse = 0.0<br/>samples = 1<br/>value = 110.708>, fillcolor="#f8ddc9"] ;
399 -> 403 ;
404 [label=<V &le; 6.2<br/>mse = 1626.778<br/>samples = 2<br/>value = 170.667>, fillcolor="#f4caab"] ;
392 -> 404 ;
405 [label=<mse = 0.0<br/>samples = 1<br/>value = 211.0>, fillcolor="#f1bd98"] ;
404 -> 405 ;
406 [label=<mse = 0.0<br/>samples = 1<br/>value = 130.333>, fillcolor="#f7d6bf"] ;
404 -> 406 ;
407 [label=<T &le; 24.45<br/>mse = 1319.653<br/>samples = 5<br/>value = 45.808>, fillcolor="#fcf1e9"] ;
333 -> 407 ;
408 [label=<H &le; 64.0<br/>mse = 333.312<br/>samples = 4<br/>value = 29.583>, fillcolor="#fdf6f1"] ;
407 -> 408 ;
409 [label=<mse = 0.0<br/>samples = 1<br/>value = 0.0>, fillcolor="#ffffff"] ;
408 -> 409 ;
410 [label=<VV &le; 6.6<br/>mse = 55.451<br/>samples = 3<br/>value = 39.444>, fillcolor="#fcf3ec"] ;
408 -> 410 ;
411 [label=<mse = 0.0<br/>samples = 1<br/>value = 29.0>, fillcolor="#fdf6f1"] ;
410 -> 411 ;
412 [label=<V &le; 5.45<br/>mse = 1.361<br/>samples = 2<br/>value = 44.667>, fillcolor="#fcf1e9"] ;
410 -> 412 ;
413 [label=<mse = 0.0<br/>samples = 1<br/>value = 43.5>, fillcolor="#fcf1ea"] ;
412 -> 413 ;
414 [label=<mse = 0.0<br/>samples = 1<br/>value = 45.833>, fillcolor="#fcf1e9"] ;
412 -> 414 ;
415 [label=<mse = 0.0<br/>samples = 1<br/>value = 110.708>, fillcolor="#f8ddc9"] ;
407 -> 415 ;
416 [label=<V &le; 4.35<br/>mse = 3343.435<br/>samples = 558<br/>value = 78.525>, fillcolor="#fae7d9"] ;
0 -> 416 [labeldistance=2.5, labelangle=-45, headlabel="False"] ;
417 [label=<T &le; 23.75<br/>mse = 4292.635<br/>samples = 290<br/>value = 96.136>, fillcolor="#f9e1d0"] ;
416 -> 417 ;
418 [label=<H &le; 69.5<br/>mse = 8712.199<br/>samples = 65<br/>value = 136.235>, fillcolor="#f6d5bc"] ;
417 -> 418 ;
419 [label=<TM &le; 31.3<br/>mse = 6028.047<br/>samples = 7<br/>value = 252.983>, fillcolor="#efb083"] ;
418 -> 419 ;
420 [label=<TM &le; 29.05<br/>mse = 2452.203<br/>samples = 6<br/>value = 278.563>, fillcolor="#eda877"] ;
419 -> 420 ;
421 [label=<T &le; 23.45<br/>mse = 794.535<br/>samples = 2<br/>value = 337.562>, fillcolor="#e9965a"] ;
420 -> 421 ;
422 [label=<mse = 0.0<br/>samples = 1<br/>value = 309.375>, fillcolor="#eb9f68"] ;
421 -> 422 ;
423 [label=<mse = 0.0<br/>samples = 1<br/>value = 365.75>, fillcolor="#e78d4c"] ;
421 -> 423 ;
424 [label=<Tm &le; 19.05<br/>mse = 670.349<br/>samples = 4<br/>value = 249.064>, fillcolor="#efb185"] ;
420 -> 424 ;
425 [label=<mse = 0.0<br/>samples = 1<br/>value = 284.796>, fillcolor="#eda674"] ;
424 -> 425 ;
426 [label=<Tm &le; 20.1<br/>mse = 326.333<br/>samples = 3<br/>value = 237.153>, fillcolor="#f0b58b"] ;
424 -> 426 ;
427 [label=<VM &le; 5.55<br/>mse = 38.802<br/>samples = 2<br/>value = 224.896>, fillcolor="#f1b991"] ;
426 -> 427 ;
428 [label=<mse = 0.0<br/>samples = 1<br/>value = 218.667>, fillcolor="#f1bb94"] ;
427 -> 428 ;
429 [label=<mse = 0.0<br/>samples = 1<br/>value = 231.125>, fillcolor="#f0b78e"] ;
427 -> 429 ;
430 [label=<mse = 0.0<br/>samples = 1<br/>value = 261.667>, fillcolor="#eead7f"] ;
426 -> 430 ;
431 [label=<mse = 0.0<br/>samples = 1<br/>value = 99.5>, fillcolor="#f9e0ce"] ;
419 -> 431 ;
432 [label=<T &le; 21.55<br/>mse = 7192.621<br/>samples = 58<br/>value = 122.145>, fillcolor="#f7d9c3"] ;
418 -> 432 ;
433 [label=<Tm &le; 19.35<br/>mse = 2752.739<br/>samples = 7<br/>value = 220.827>, fillcolor="#f1ba93"] ;
432 -> 433 ;
434 [label=<TM &le; 25.25<br/>mse = 1811.566<br/>samples = 2<br/>value = 278.979>, fillcolor="#eda876"] ;
433 -> 434 ;
435 [label=<mse = 0.0<br/>samples = 1<br/>value = 236.417>, fillcolor="#f0b58b"] ;
434 -> 435 ;
436 [label=<mse = 0.0<br/>samples = 1<br/>value = 321.542>, fillcolor="#ea9b62"] ;
434 -> 436 ;
437 [label=<VV &le; 4.75<br/>mse = 1235.496<br/>samples = 5<br/>value = 197.567>, fillcolor="#f2c19e"] ;
433 -> 437 ;
438 [label=<mse = 0.0<br/>samples = 1<br/>value = 257.667>, fillcolor="#eeaf81"] ;
437 -> 438 ;
439 [label=<TM &le; 24.25<br/>mse = 415.617<br/>samples = 4<br/>value = 182.542>, fillcolor="#f3c6a6"] ;
437 -> 439 ;
440 [label=<VM &le; 4.45<br/>mse = 116.91<br/>samples = 2<br/>value = 201.312>, fillcolor="#f2c09c"] ;
439 -> 440 ;
441 [label=<mse = 0.0<br/>samples = 1<br/>value = 190.5>, fillcolor="#f3c4a2"] ;
440 -> 441 ;
442 [label=<mse = 0.0<br/>samples = 1<br/>value = 212.125>, fillcolor="#f1bd97"] ;
440 -> 442 ;
443 [label=<VV &le; 6.2<br/>mse = 9.636<br/>samples = 2<br/>value = 163.771>, fillcolor="#f4ccaf"] ;
439 -> 443 ;
444 [label=<mse = 0.0<br/>samples = 1<br/>value = 166.875>, fillcolor="#f4cbad"] ;
443 -> 444 ;
445 [label=<mse = 0.0<br/>samples = 1<br/>value = 160.667>, fillcolor="#f5cdb0"] ;
443 -> 445 ;
446 [label=<H &le; 78.5<br/>mse = 6281.948<br/>samples = 51<br/>value = 108.601>, fillcolor="#f8ddca"] ;
432 -> 446 ;
447 [label=<V &le; 4.2<br/>mse = 4779.101<br/>samples = 19<br/>value = 148.343>, fillcolor="#f5d1b6"] ;
446 -> 447 ;
448 [label=<V &le; 3.8<br/>mse = 4291.512<br/>samples = 18<br/>value = 142.047>, fillcolor="#f6d3b9"] ;
447 -> 448 ;
449 [label=<Tm &le; 21.0<br/>mse = 3633.42<br/>samples = 16<br/>value = 152.814>, fillcolor="#f5cfb4"] ;
448 -> 449 ;
450 [label=<TM &le; 28.85<br/>mse = 2893.505<br/>samples = 15<br/>value = 160.648>, fillcolor="#f5cdb0"] ;
449 -> 450 ;
451 [label=<T &le; 22.75<br/>mse = 1818.788<br/>samples = 8<br/>value = 186.169>, fillcolor="#f3c5a4"] ;
450 -> 451 ;
452 [label=<TM &le; 27.65<br/>mse = 784.427<br/>samples = 5<br/>value = 158.503>, fillcolor="#f5ceb1"] ;
451 -> 452 ;
453 [label=<T &le; 22.65<br/>mse = 114.161<br/>samples = 3<br/>value = 137.756>, fillcolor="#f6d4bc"] ;
452 -> 453 ;
454 [label=<VV &le; 5.05<br/>mse = 23.482<br/>samples = 2<br/>value = 130.737>, fillcolor="#f7d6bf"] ;
453 -> 454 ;
455 [label=<mse = 0.0<br/>samples = 1<br/>value = 135.583>, fillcolor="#f6d5bd"] ;
454 -> 455 ;
456 [label=<mse = 0.0<br/>samples = 1<br/>value = 125.892>, fillcolor="#f7d8c1"] ;
454 -> 456 ;
457 [label=<mse = 0.0<br/>samples = 1<br/>value = 151.792>, fillcolor="#f5d0b5"] ;
453 -> 457 ;
458 [label=<VV &le; 7.0<br/>mse = 175.562<br/>samples = 2<br/>value = 189.625>, fillcolor="#f3c4a2"] ;
452 -> 458 ;
459 [label=<mse = 0.0<br/>samples = 1<br/>value = 202.875>, fillcolor="#f2c09c"] ;
458 -> 459 ;
460 [label=<mse = 0.0<br/>samples = 1<br/>value = 176.375>, fillcolor="#f4c8a9"] ;
458 -> 460 ;
461 [label=<T &le; 23.1<br/>mse = 141.056<br/>samples = 3<br/>value = 232.278>, fillcolor="#f0b78d"] ;
451 -> 461 ;
462 [label=<VM &le; 4.45<br/>mse = 1.511<br/>samples = 2<br/>value = 240.646>, fillcolor="#f0b489"] ;
461 -> 462 ;
463 [label=<mse = 0.0<br/>samples = 1<br/>value = 241.875>, fillcolor="#efb489"] ;
462 -> 463 ;
464 [label=<mse = 0.0<br/>samples = 1<br/>value = 239.417>, fillcolor="#f0b48a"] ;
462 -> 464 ;
465 [label=<mse = 0.0<br/>samples = 1<br/>value = 215.542>, fillcolor="#f1bc95"] ;
461 -> 465 ;
466 [label=<Tm &le; 20.45<br/>mse = 2526.752<br/>samples = 7<br/>value = 131.482>, fillcolor="#f7d6bf"] ;
450 -> 466 ;
467 [label=<T &le; 23.35<br/>mse = 1513.348<br/>samples = 6<br/>value = 117.167>, fillcolor="#f7dbc6"] ;
466 -> 467 ;
468 [label=<VM &le; 4.45<br/>mse = 679.683<br/>samples = 4<br/>value = 139.76>, fillcolor="#f6d3bb"] ;
467 -> 468 ;
469 [label=<V &le; 1.4<br/>mse = 59.098<br/>samples = 2<br/>value = 165.062>, fillcolor="#f4ccae"] ;
468 -> 469 ;
470 [label=<mse = 0.0<br/>samples = 1<br/>value = 172.75>, fillcolor="#f4c9aa"] ;
469 -> 470 ;
471 [label=<mse = 0.0<br/>samples = 1<br/>value = 157.375>, fillcolor="#f5ceb2"] ;
469 -> 471 ;
472 [label=<TM &le; 29.55<br/>mse = 19.877<br/>samples = 2<br/>value = 114.458>, fillcolor="#f8dbc7"] ;
468 -> 472 ;
473 [label=<mse = 0.0<br/>samples = 1<br/>value = 110.0>, fillcolor="#f8ddc9"] ;
472 -> 473 ;
474 [label=<mse = 0.0<br/>samples = 1<br/>value = 118.917>, fillcolor="#f7dac5"] ;
472 -> 474 ;
475 [label=<H &le; 74.5<br/>mse = 117.813<br/>samples = 2<br/>value = 71.979>, fillcolor="#fae9dc"] ;
467 -> 475 ;
476 [label=<mse = 0.0<br/>samples = 1<br/>value = 82.833>, fillcolor="#fae5d6"] ;
475 -> 476 ;
477 [label=<mse = 0.0<br/>samples = 1<br/>value = 61.125>, fillcolor="#fbece1"] ;
475 -> 477 ;
478 [label=<mse = 0.0<br/>samples = 1<br/>value = 217.375>, fillcolor="#f1bb95"] ;
466 -> 478 ;
479 [label=<mse = -0.0<br/>samples = 1<br/>value = 35.292>, fillcolor="#fdf4ee"] ;
449 -> 479 ;
480 [label=<Tm &le; 20.4<br/>mse = 1210.46<br/>samples = 2<br/>value = 55.917>, fillcolor="#fbeee4"] ;
448 -> 480 ;
481 [label=<mse = 0.0<br/>samples = 1<br/>value = 21.125>, fillcolor="#fef8f5"] ;
480 -> 481 ;
482 [label=<mse = 0.0<br/>samples = 1<br/>value = 90.708>, fillcolor="#f9e3d3"] ;
480 -> 482 ;
483 [label=<mse = 0.0<br/>samples = 1<br/>value = 261.667>, fillcolor="#eead7f"] ;
447 -> 483 ;
484 [label=<Tm &le; 19.55<br/>mse = 5679.639<br/>samples = 32<br/>value = 85.004>, fillcolor="#fae5d5"] ;
446 -> 484 ;
485 [label=<TM &le; 28.7<br/>mse = 526.78<br/>samples = 8<br/>value = 30.573>, fillcolor="#fdf5f0"] ;
484 -> 485 ;
486 [label=<TM &le; 26.85<br/>mse = 146.591<br/>samples = 4<br/>value = 11.948>, fillcolor="#fefbf9"] ;
485 -> 486 ;
487 [label=<mse = 0.0<br/>samples = 2<br/>value = 0.0>, fillcolor="#ffffff"] ;
486 -> 487 ;
488 [label=<V &le; 2.65<br/>mse = 7.678<br/>samples = 2<br/>value = 23.896>, fillcolor="#fdf8f3"] ;
486 -> 488 ;
489 [label=<mse = 0.0<br/>samples = 1<br/>value = 21.125>, fillcolor="#fef8f5"] ;
488 -> 489 ;
490 [label=<mse = 0.0<br/>samples = 1<br/>value = 26.667>, fillcolor="#fdf7f2"] ;
488 -> 490 ;
491 [label=<T &le; 22.7<br/>mse = 213.188<br/>samples = 4<br/>value = 49.198>, fillcolor="#fcf0e7"] ;
485 -> 491 ;
492 [label=<mse = 0.0<br/>samples = 1<br/>value = 70.708>, fillcolor="#fae9dc"] ;
491 -> 492 ;
493 [label=<V &le; 3.5<br/>mse = 78.607<br/>samples = 3<br/>value = 42.028>, fillcolor="#fcf2ea"] ;
491 -> 493 ;
494 [label=<Tm &le; 19.35<br/>mse = 15.34<br/>samples = 2<br/>value = 47.875>, fillcolor="#fcf0e8"] ;
493 -> 494 ;
495 [label=<mse = 0.0<br/>samples = 1<br/>value = 51.792>, fillcolor="#fcefe6"] ;
494 -> 495 ;
496 [label=<mse = 0.0<br/>samples = 1<br/>value = 43.958>, fillcolor="#fcf1e9"] ;
494 -> 496 ;
497 [label=<mse = 0.0<br/>samples = 1<br/>value = 30.333>, fillcolor="#fdf6f0"] ;
493 -> 497 ;
498 [label=<TM &le; 27.15<br/>mse = 6080.507<br/>samples = 24<br/>value = 103.147>, fillcolor="#f8dfcd"] ;
484 -> 498 ;
499 [label=<TM &le; 26.2<br/>mse = 2698.504<br/>samples = 4<br/>value = 205.601>, fillcolor="#f2bf9a"] ;
498 -> 499 ;
500 [label=<VM &le; 4.45<br/>mse = 3.86<br/>samples = 2<br/>value = 154.285>, fillcolor="#f5cfb3"] ;
499 -> 500 ;
501 [label=<mse = 0.0<br/>samples = 1<br/>value = 156.25>, fillcolor="#f5ceb3"] ;
500 -> 501 ;
502 [label=<mse = 0.0<br/>samples = 1<br/>value = 152.321>, fillcolor="#f5d0b4"] ;
500 -> 502 ;
503 [label=<Tm &le; 20.25<br/>mse = 126.562<br/>samples = 2<br/>value = 256.917>, fillcolor="#eeaf81"] ;
499 -> 503 ;
504 [label=<mse = 0.0<br/>samples = 1<br/>value = 268.167>, fillcolor="#eeab7c"] ;
503 -> 504 ;
505 [label=<mse = 0.0<br/>samples = 1<br/>value = 245.667>, fillcolor="#efb287"] ;
503 -> 505 ;
506 [label=<T &le; 22.2<br/>mse = 4237.671<br/>samples = 20<br/>value = 82.656>, fillcolor="#fae5d7"] ;
498 -> 506 ;
507 [label=<Tm &le; 20.2<br/>mse = 7707.098<br/>samples = 3<br/>value = 139.139>, fillcolor="#f6d4bb"] ;
506 -> 507 ;
508 [label=<Tm &le; 19.9<br/>mse = 1901.323<br/>samples = 2<br/>value = 82.396>, fillcolor="#fae5d7"] ;
507 -> 508 ;
509 [label=<mse = 0.0<br/>samples = 1<br/>value = 126.0>, fillcolor="#f7d8c1"] ;
508 -> 509 ;
510 [label=<mse = 0.0<br/>samples = 1<br/>value = 38.792>, fillcolor="#fdf3ec"] ;
508 -> 510 ;
511 [label=<mse = 0.0<br/>samples = 1<br/>value = 252.625>, fillcolor="#efb083"] ;
507 -> 511 ;
512 [label=<Tm &le; 20.0<br/>mse = 2963.075<br/>samples = 17<br/>value = 72.689>, fillcolor="#fae8db"] ;
506 -> 512 ;
513 [label=<VV &le; 5.65<br/>mse = 3663.531<br/>samples = 9<br/>value = 97.81>, fillcolor="#f9e1cf"] ;
512 -> 513 ;
514 [label=<T &le; 23.45<br/>mse = 42.25<br/>samples = 2<br/>value = 36.833>, fillcolor="#fdf4ed"] ;
513 -> 514 ;
515 [label=<mse = 0.0<br/>samples = 1<br/>value = 30.333>, fillcolor="#fdf6f0"] ;
514 -> 515 ;
516 [label=<mse = 0.0<br/>samples = 1<br/>value = 43.333>, fillcolor="#fcf2ea"] ;
514 -> 516 ;
517 [label=<VV &le; 6.05<br/>mse = 3332.322<br/>samples = 7<br/>value = 115.232>, fillcolor="#f8dbc7"] ;
513 -> 517 ;
518 [label=<mse = 0.0<br/>samples = 1<br/>value = 217.375>, fillcolor="#f1bb95"] ;
517 -> 518 ;
519 [label=<TM &le; 30.7<br/>mse = 1859.039<br/>samples = 6<br/>value = 98.208>, fillcolor="#f9e0cf"] ;
517 -> 519 ;
520 [label=<T &le; 22.7<br/>mse = 1273.24<br/>samples = 5<br/>value = 85.575>, fillcolor="#f9e4d5"] ;
519 -> 520 ;
521 [label=<H &le; 83.5<br/>mse = 56.563<br/>samples = 2<br/>value = 126.937>, fillcolor="#f7d7c1"] ;
520 -> 521 ;
522 [label=<mse = 0.0<br/>samples = 1<br/>value = 134.458>, fillcolor="#f6d5bd"] ;
521 -> 522 ;
523 [label=<mse = 0.0<br/>samples = 1<br/>value = 119.417>, fillcolor="#f7dac5"] ;
521 -> 523 ;
524 [label=<H &le; 83.5<br/>mse = 183.406<br/>samples = 3<br/>value = 58.0>, fillcolor="#fbede3"] ;
520 -> 524 ;
525 [label=<TM &le; 30.45<br/>mse = 7.91<br/>samples = 2<br/>value = 48.562>, fillcolor="#fcf0e7"] ;
524 -> 525 ;
526 [label=<mse = 0.0<br/>samples = 1<br/>value = 45.75>, fillcolor="#fcf1e9"] ;
525 -> 526 ;
527 [label=<mse = 0.0<br/>samples = 1<br/>value = 51.375>, fillcolor="#fcefe6"] ;
525 -> 527 ;
528 [label=<mse = 0.0<br/>samples = 1<br/>value = 76.875>, fillcolor="#fae7d9"] ;
524 -> 528 ;
529 [label=<mse = 0.0<br/>samples = 1<br/>value = 161.375>, fillcolor="#f5cdb0"] ;
519 -> 529 ;
530 [label=<TM &le; 27.65<br/>mse = 666.368<br/>samples = 8<br/>value = 44.427>, fillcolor="#fcf1e9"] ;
512 -> 530 ;
531 [label=<T &le; 23.05<br/>mse = 2.918<br/>samples = 2<br/>value = 81.75>, fillcolor="#fae6d7"] ;
530 -> 531 ;
532 [label=<mse = 0.0<br/>samples = 1<br/>value = 80.042>, fillcolor="#fae6d8"] ;
531 -> 532 ;
533 [label=<mse = 0.0<br/>samples = 1<br/>value = 83.458>, fillcolor="#fae5d6"] ;
531 -> 533 ;
534 [label=<T &le; 23.45<br/>mse = 268.407<br/>samples = 6<br/>value = 31.986>, fillcolor="#fdf5ef"] ;
530 -> 534 ;
535 [label=<T &le; 22.5<br/>mse = 70.746<br/>samples = 4<br/>value = 22.385>, fillcolor="#fef8f4"] ;
534 -> 535 ;
536 [label=<mse = 0.0<br/>samples = 1<br/>value = 8.417>, fillcolor="#fefcfb"] ;
535 -> 536 ;
537 [label=<T &le; 22.95<br/>mse = 7.605<br/>samples = 3<br/>value = 27.042>, fillcolor="#fdf7f2"] ;
535 -> 537 ;
538 [label=<mse = 0.0<br/>samples = 1<br/>value = 30.625>, fillcolor="#fdf5f0"] ;
537 -> 538 ;
539 [label=<VM &le; 8.25<br/>mse = 1.778<br/>samples = 2<br/>value = 25.25>, fillcolor="#fdf7f3"] ;
537 -> 539 ;
540 [label=<mse = 0.0<br/>samples = 1<br/>value = 26.583>, fillcolor="#fdf7f2"] ;
539 -> 540 ;
541 [label=<mse = 0.0<br/>samples = 1<br/>value = 23.917>, fillcolor="#fdf8f3"] ;
539 -> 541 ;
542 [label=<H &le; 86.5<br/>mse = 110.688<br/>samples = 2<br/>value = 51.188>, fillcolor="#fcefe6"] ;
534 -> 542 ;
543 [label=<mse = 0.0<br/>samples = 1<br/>value = 61.708>, fillcolor="#fbece1"] ;
542 -> 543 ;
544 [label=<mse = 0.0<br/>samples = 1<br/>value = 40.667>, fillcolor="#fcf2eb"] ;
542 -> 544 ;
545 [label=<H &le; 72.5<br/>mse = 2417.157<br/>samples = 225<br/>value = 84.552>, fillcolor="#fae5d6"] ;
417 -> 545 ;
546 [label=<T &le; 24.95<br/>mse = 2538.063<br/>samples = 189<br/>value = 90.115>, fillcolor="#f9e3d3"] ;
545 -> 546 ;
547 [label=<H &le; 66.5<br/>mse = 3812.028<br/>samples = 40<br/>value = 117.273>, fillcolor="#f7dac6"] ;
546 -> 547 ;
548 [label=<TM &le; 31.4<br/>mse = 3476.969<br/>samples = 22<br/>value = 138.824>, fillcolor="#f6d4bb"] ;
547 -> 548 ;
549 [label=<TM &le; 30.05<br/>mse = 3832.269<br/>samples = 11<br/>value = 168.451>, fillcolor="#f4cbad"] ;
548 -> 549 ;
550 [label=<T &le; 24.1<br/>mse = 1908.52<br/>samples = 3<br/>value = 100.194>, fillcolor="#f9e0ce"] ;
549 -> 550 ;
551 [label=<mse = 0.0<br/>samples = 1<br/>value = 156.0>, fillcolor="#f5ceb3"] ;
550 -> 551 ;
552 [label=<H &le; 60.5<br/>mse = 527.085<br/>samples = 2<br/>value = 72.292>, fillcolor="#fae8dc"] ;
550 -> 552 ;
553 [label=<mse = 0.0<br/>samples = 1<br/>value = 95.25>, fillcolor="#f9e1d0"] ;
552 -> 553 ;
554 [label=<mse = 0.0<br/>samples = 1<br/>value = 49.333>, fillcolor="#fcf0e7"] ;
552 -> 554 ;
555 [label=<TM &le; 31.25<br/>mse = 2151.417<br/>samples = 8<br/>value = 194.047>, fillcolor="#f3c3a0"] ;
549 -> 555 ;
556 [label=<TM &le; 30.5<br/>mse = 1712.243<br/>samples = 7<br/>value = 184.387>, fillcolor="#f3c6a5"] ;
555 -> 556 ;
557 [label=<VM &le; 6.5<br/>mse = 323.272<br/>samples = 3<br/>value = 225.917>, fillcolor="#f0b990"] ;
556 -> 557 ;
558 [label=<Tm &le; 19.6<br/>mse = 5.157<br/>samples = 2<br/>value = 213.271>, fillcolor="#f1bd97"] ;
557 -> 558 ;
559 [label=<mse = 0.0<br/>samples = 1<br/>value = 211.0>, fillcolor="#f1bd98"] ;
558 -> 559 ;
560 [label=<mse = 0.0<br/>samples = 1<br/>value = 215.542>, fillcolor="#f1bc95"] ;
558 -> 560 ;
561 [label=<mse = 0.0<br/>samples = 1<br/>value = 251.208>, fillcolor="#efb184"] ;
557 -> 561 ;
562 [label=<V &le; 1.95<br/>mse = 490.275<br/>samples = 4<br/>value = 153.24>, fillcolor="#f5cfb4"] ;
556 -> 562 ;
563 [label=<mse = 0.0<br/>samples = 1<br/>value = 115.833>, fillcolor="#f8dbc6"] ;
562 -> 563 ;
564 [label=<Tm &le; 19.75<br/>mse = 31.821<br/>samples = 3<br/>value = 165.708>, fillcolor="#f4cbae"] ;
562 -> 564 ;
565 [label=<mse = 0.0<br/>samples = 1<br/>value = 173.583>, fillcolor="#f4c9aa"] ;
564 -> 565 ;
566 [label=<VM &le; 6.5<br/>mse = 1.219<br/>samples = 2<br/>value = 161.771>, fillcolor="#f5cdb0"] ;
564 -> 566 ;
567 [label=<mse = 0.0<br/>samples = 1<br/>value = 162.875>, fillcolor="#f5ccaf"] ;
566 -> 567 ;
568 [label=<mse = 0.0<br/>samples = 1<br/>value = 160.667>, fillcolor="#f5cdb0"] ;
566 -> 568 ;
569 [label=<mse = 0.0<br/>samples = 1<br/>value = 261.667>, fillcolor="#eead7f"] ;
555 -> 569 ;
570 [label=<TM &le; 31.55<br/>mse = 1366.164<br/>samples = 11<br/>value = 109.197>, fillcolor="#f8ddca"] ;
548 -> 570 ;
571 [label=<mse = 0.0<br/>samples = 1<br/>value = 47.5>, fillcolor="#fcf0e8"] ;
570 -> 571 ;
572 [label=<Tm &le; 20.35<br/>mse = 1084.063<br/>samples = 10<br/>value = 115.367>, fillcolor="#f8dbc7"] ;
570 -> 572 ;
573 [label=<V &le; 4.1<br/>mse = 758.588<br/>samples = 8<br/>value = 125.479>, fillcolor="#f7d8c2"] ;
572 -> 573 ;
574 [label=<T &le; 24.4<br/>mse = 223.664<br/>samples = 7<br/>value = 134.446>, fillcolor="#f6d5bd"] ;
573 -> 574 ;
575 [label=<T &le; 24.15<br/>mse = 31.641<br/>samples = 2<br/>value = 122.083>, fillcolor="#f7d9c3"] ;
574 -> 575 ;
576 [label=<mse = 0.0<br/>samples = 1<br/>value = 127.708>, fillcolor="#f7d7c0"] ;
575 -> 576 ;
577 [label=<mse = 0.0<br/>samples = 1<br/>value = 116.458>, fillcolor="#f8dbc6"] ;
575 -> 577 ;
578 [label=<Tm &le; 19.15<br/>mse = 214.879<br/>samples = 5<br/>value = 139.392>, fillcolor="#f6d4bb"] ;
574 -> 578 ;
579 [label=<mse = 0.0<br/>samples = 1<br/>value = 165.0>, fillcolor="#f4ccae"] ;
578 -> 579 ;
580 [label=<Tm &le; 19.4<br/>mse = 63.665<br/>samples = 4<br/>value = 132.99>, fillcolor="#f6d6be"] ;
578 -> 580 ;
581 [label=<mse = 0.0<br/>samples = 1<br/>value = 120.917>, fillcolor="#f7d9c4"] ;
580 -> 581 ;
582 [label=<H &le; 61.0<br/>mse = 20.107<br/>samples = 3<br/>value = 137.014>, fillcolor="#f6d4bc"] ;
580 -> 582 ;
583 [label=<VM &le; 4.45<br/>mse = 3.285<br/>samples = 2<br/>value = 134.021>, fillcolor="#f6d5bd"] ;
582 -> 583 ;
584 [label=<mse = 0.0<br/>samples = 1<br/>value = 132.208>, fillcolor="#f7d6be"] ;
583 -> 584 ;
585 [label=<mse = 0.0<br/>samples = 1<br/>value = 135.833>, fillcolor="#f6d5bd"] ;
583 -> 585 ;
586 [label=<mse = 0.0<br/>samples = 1<br/>value = 143.0>, fillcolor="#f6d2b9"] ;
582 -> 586 ;
587 [label=<mse = -0.0<br/>samples = 1<br/>value = 62.708>, fillcolor="#fbebe0"] ;
573 -> 587 ;
588 [label=<Tm &le; 20.75<br/>mse = 340.71<br/>samples = 2<br/>value = 74.917>, fillcolor="#fae8da"] ;
572 -> 588 ;
589 [label=<mse = 0.0<br/>samples = 1<br/>value = 56.458>, fillcolor="#fbede3"] ;
588 -> 589 ;
590 [label=<mse = 0.0<br/>samples = 1<br/>value = 93.375>, fillcolor="#f9e2d1"] ;
588 -> 590 ;
591 [label=<T &le; 24.15<br/>mse = 2960.092<br/>samples = 18<br/>value = 90.933>, fillcolor="#f9e3d2"] ;
547 -> 591 ;
592 [label=<V &le; 4.1<br/>mse = 2144.82<br/>samples = 4<br/>value = 149.021>, fillcolor="#f5d1b6"] ;
591 -> 592 ;
593 [label=<TM &le; 29.8<br/>mse = 200.352<br/>samples = 3<br/>value = 174.806>, fillcolor="#f4c9a9"] ;
592 -> 593 ;
594 [label=<mse = 0.0<br/>samples = 1<br/>value = 194.708>, fillcolor="#f2c2a0"] ;
593 -> 594 ;
595 [label=<H &le; 70.5<br/>mse = 3.438<br/>samples = 2<br/>value = 164.854>, fillcolor="#f4ccae"] ;
593 -> 595 ;
596 [label=<mse = 0.0<br/>samples = 1<br/>value = 163.0>, fillcolor="#f5ccaf"] ;
595 -> 596 ;
597 [label=<mse = 0.0<br/>samples = 1<br/>value = 166.708>, fillcolor="#f4cbad"] ;
595 -> 597 ;
598 [label=<mse = 0.0<br/>samples = 1<br/>value = 71.667>, fillcolor="#fae9dc"] ;
592 -> 598 ;
599 [label=<Tm &le; 20.05<br/>mse = 1953.521<br/>samples = 14<br/>value = 74.336>, fillcolor="#fae8db"] ;
591 -> 599 ;
600 [label=<Tm &le; 19.95<br/>mse = 35.569<br/>samples = 4<br/>value = 33.635>, fillcolor="#fdf5ef"] ;
599 -> 600 ;
601 [label=<H &le; 68.0<br/>mse = 5.625<br/>samples = 3<br/>value = 30.403>, fillcolor="#fdf6f0"] ;
600 -> 601 ;
602 [label=<mse = 0.0<br/>samples = 1<br/>value = 27.375>, fillcolor="#fdf6f2"] ;
601 -> 602 ;
603 [label=<VM &le; 4.45<br/>mse = 1.563<br/>samples = 2<br/>value = 31.917>, fillcolor="#fdf5ef"] ;
601 -> 603 ;
604 [label=<mse = 0.0<br/>samples = 1<br/>value = 33.167>, fillcolor="#fdf5ef"] ;
603 -> 604 ;
605 [label=<mse = 0.0<br/>samples = 1<br/>value = 30.667>, fillcolor="#fdf5f0"] ;
603 -> 605 ;
606 [label=<mse = 0.0<br/>samples = 1<br/>value = 43.333>, fillcolor="#fcf2ea"] ;
600 -> 606 ;
607 [label=<Tm &le; 20.65<br/>mse = 1793.027<br/>samples = 10<br/>value = 90.617>, fillcolor="#f9e3d3"] ;
599 -> 607 ;
608 [label=<T &le; 24.25<br/>mse = 1239.242<br/>samples = 8<br/>value = 104.672>, fillcolor="#f8decc"] ;
607 -> 608 ;
609 [label=<mse = 0.0<br/>samples = 1<br/>value = 45.75>, fillcolor="#fcf1e9"] ;
608 -> 609 ;
610 [label=<T &le; 24.75<br/>mse = 849.454<br/>samples = 7<br/>value = 113.089>, fillcolor="#f8dcc8"] ;
608 -> 610 ;
611 [label=<TM &le; 30.6<br/>mse = 385.651<br/>samples = 6<br/>value = 122.389>, fillcolor="#f7d9c3"] ;
610 -> 611 ;
612 [label=<VM &le; 5.55<br/>mse = 155.335<br/>samples = 3<br/>value = 139.708>, fillcolor="#f6d3bb"] ;
611 -> 612 ;
613 [label=<mse = 0.0<br/>samples = 1<br/>value = 156.25>, fillcolor="#f5ceb3"] ;
612 -> 613 ;
614 [label=<TM &le; 30.15<br/>mse = 27.782<br/>samples = 2<br/>value = 131.437>, fillcolor="#f7d6bf"] ;
612 -> 614 ;
615 [label=<mse = 0.0<br/>samples = 1<br/>value = 136.708>, fillcolor="#f6d4bc"] ;
614 -> 615 ;
616 [label=<mse = 0.0<br/>samples = 1<br/>value = 126.167>, fillcolor="#f7d8c1"] ;
614 -> 616 ;
617 [label=<TM &le; 31.05<br/>mse = 16.042<br/>samples = 3<br/>value = 105.069>, fillcolor="#f8decc"] ;
611 -> 617 ;
618 [label=<mse = 0.0<br/>samples = 1<br/>value = 99.708>, fillcolor="#f9e0ce"] ;
617 -> 618 ;
619 [label=<T &le; 24.5<br/>mse = 2.507<br/>samples = 2<br/>value = 107.75>, fillcolor="#f8ddca"] ;
617 -> 619 ;
620 [label=<mse = 0.0<br/>samples = 1<br/>value = 109.333>, fillcolor="#f8ddc9"] ;
619 -> 620 ;
621 [label=<mse = 0.0<br/>samples = 1<br/>value = 106.167>, fillcolor="#f8decb"] ;
619 -> 621 ;
622 [label=<mse = 0.0<br/>samples = 1<br/>value = 57.292>, fillcolor="#fbede3"] ;
610 -> 622 ;
623 [label=<Tm &le; 21.15<br/>mse = 57.191<br/>samples = 2<br/>value = 34.396>, fillcolor="#fdf4ee"] ;
607 -> 623 ;
624 [label=<mse = 0.0<br/>samples = 1<br/>value = 41.958>, fillcolor="#fcf2ea"] ;
623 -> 624 ;
625 [label=<mse = 0.0<br/>samples = 1<br/>value = 26.833>, fillcolor="#fdf7f2"] ;
623 -> 625 ;
626 [label=<TM &le; 34.75<br/>mse = 1944.897<br/>samples = 149<br/>value = 82.824>, fillcolor="#fae5d6"] ;
546 -> 626 ;
627 [label=<TM &le; 30.75<br/>mse = 1938.654<br/>samples = 69<br/>value = 91.848>, fillcolor="#f9e2d2"] ;
626 -> 627 ;
628 [label=<VM &le; 6.5<br/>mse = 781.053<br/>samples = 4<br/>value = 37.365>, fillcolor="#fdf3ed"] ;
627 -> 628 ;
629 [label=<Tm &le; 20.3<br/>mse = 193.674<br/>samples = 2<br/>value = 13.917>, fillcolor="#fefbf8"] ;
628 -> 629 ;
630 [label=<mse = 0.0<br/>samples = 1<br/>value = 0.0>, fillcolor="#ffffff"] ;
629 -> 630 ;
631 [label=<mse = 0.0<br/>samples = 1<br/>value = 27.833>, fillcolor="#fdf6f1"] ;
629 -> 631 ;
632 [label=<Tm &le; 21.1<br/>mse = 268.823<br/>samples = 2<br/>value = 60.813>, fillcolor="#fbece1"] ;
628 -> 632 ;
633 [label=<mse = 0.0<br/>samples = 1<br/>value = 77.208>, fillcolor="#fae7d9"] ;
632 -> 633 ;
634 [label=<mse = 0.0<br/>samples = 1<br/>value = 44.417>, fillcolor="#fcf1e9"] ;
632 -> 634 ;
635 [label=<T &le; 25.05<br/>mse = 1815.973<br/>samples = 65<br/>value = 95.201>, fillcolor="#f9e1d0"] ;
627 -> 635 ;
636 [label=<mse = 0.0<br/>samples = 1<br/>value = 0.0>, fillcolor="#ffffff"] ;
635 -> 636 ;
637 [label=<Tm &le; 22.4<br/>mse = 1700.521<br/>samples = 64<br/>value = 96.689>, fillcolor="#f9e1d0"] ;
635 -> 637 ;
638 [label=<VV &le; 6.45<br/>mse = 1716.632<br/>samples = 51<br/>value = 91.275>, fillcolor="#f9e3d2"] ;
637 -> 638 ;
639 [label=<H &le; 60.5<br/>mse = 5032.991<br/>samples = 7<br/>value = 128.696>, fillcolor="#f7d7c0"] ;
638 -> 639 ;
640 [label=<T &le; 25.6<br/>mse = 2440.986<br/>samples = 3<br/>value = 64.653>, fillcolor="#fbebdf"] ;
639 -> 640 ;
641 [label=<mse = 0.0<br/>samples = 1<br/>value = 1.792>, fillcolor="#fffefe"] ;
640 -> 641 ;
642 [label=<Tm &le; 20.8<br/>mse = 697.84<br/>samples = 2<br/>value = 96.083>, fillcolor="#f9e1d0"] ;
640 -> 642 ;
643 [label=<mse = 0.0<br/>samples = 1<br/>value = 122.5>, fillcolor="#f7d9c3"] ;
642 -> 643 ;
644 [label=<mse = 0.0<br/>samples = 1<br/>value = 69.667>, fillcolor="#fbe9dd"] ;
642 -> 644 ;
645 [label=<T &le; 25.35<br/>mse = 1593.659<br/>samples = 4<br/>value = 176.729>, fillcolor="#f4c8a8"] ;
639 -> 645 ;
646 [label=<mse = 0.0<br/>samples = 1<br/>value = 245.667>, fillcolor="#efb287"] ;
645 -> 646 ;
647 [label=<T &le; 26.4<br/>mse = 12.71<br/>samples = 3<br/>value = 153.75>, fillcolor="#f5cfb4"] ;
645 -> 647 ;
648 [label=<T &le; 25.55<br/>mse = 3.594<br/>samples = 2<br/>value = 151.479>, fillcolor="#f5d0b5"] ;
647 -> 648 ;
649 [label=<mse = 0.0<br/>samples = 1<br/>value = 153.375>, fillcolor="#f5cfb4"] ;
648 -> 649 ;
650 [label=<mse = 0.0<br/>samples = 1<br/>value = 149.583>, fillcolor="#f5d0b6"] ;
648 -> 650 ;
651 [label=<mse = 0.0<br/>samples = 1<br/>value = 158.292>, fillcolor="#f5ceb2"] ;
647 -> 651 ;
652 [label=<H &le; 57.5<br/>mse = 930.795<br/>samples = 44<br/>value = 85.321>, fillcolor="#fae4d5"] ;
638 -> 652 ;
653 [label=<TM &le; 34.65<br/>mse = 517.072<br/>samples = 18<br/>value = 99.72>, fillcolor="#f9e0ce"] ;
652 -> 653 ;
654 [label=<H &le; 32.0<br/>mse = 450.933<br/>samples = 16<br/>value = 103.245>, fillcolor="#f8dfcc"] ;
653 -> 654 ;
655 [label=<mse = 0.0<br/>samples = 1<br/>value = 146.542>, fillcolor="#f6d1b7"] ;
654 -> 655 ;
656 [label=<T &le; 25.35<br/>mse = 347.689<br/>samples = 15<br/>value = 100.358>, fillcolor="#f9e0ce"] ;
654 -> 656 ;
657 [label=<V &le; 3.05<br/>mse = 35.007<br/>samples = 2<br/>value = 71.292>, fillcolor="#fae9dc"] ;
656 -> 657 ;
658 [label=<mse = 0.0<br/>samples = 1<br/>value = 65.375>, fillcolor="#fbebdf"] ;
657 -> 658 ;
659 [label=<mse = 0.0<br/>samples = 1<br/>value = 77.208>, fillcolor="#fae7d9"] ;
657 -> 659 ;
660 [label=<V &le; 4.0<br/>mse = 245.817<br/>samples = 13<br/>value = 104.83>, fillcolor="#f8decc"] ;
656 -> 660 ;
661 [label=<TM &le; 32.8<br/>mse = 189.958<br/>samples = 12<br/>value = 107.253>, fillcolor="#f8decb"] ;
660 -> 661 ;
662 [label=<H &le; 53.0<br/>mse = 83.266<br/>samples = 2<br/>value = 126.708>, fillcolor="#f7d8c1"] ;
661 -> 662 ;
663 [label=<mse = 0.0<br/>samples = 1<br/>value = 135.833>, fillcolor="#f6d5bd"] ;
662 -> 663 ;
664 [label=<mse = 0.0<br/>samples = 1<br/>value = 117.583>, fillcolor="#f7dac5"] ;
662 -> 664 ;
665 [label=<TM &le; 33.95<br/>mse = 120.459<br/>samples = 10<br/>value = 103.363>, fillcolor="#f8dfcc"] ;
661 -> 665 ;
666 [label=<H &le; 54.5<br/>mse = 100.996<br/>samples = 5<br/>value = 96.617>, fillcolor="#f9e1d0"] ;
665 -> 666 ;
667 [label=<VV &le; 7.3<br/>mse = 19.524<br/>samples = 3<br/>value = 104.0>, fillcolor="#f8dfcc"] ;
666 -> 667 ;
668 [label=<V &le; 2.2<br/>mse = 0.766<br/>samples = 2<br/>value = 100.917>, fillcolor="#f9e0ce"] ;
667 -> 668 ;
669 [label=<mse = 0.0<br/>samples = 1<br/>value = 101.792>, fillcolor="#f8dfcd"] ;
668 -> 669 ;
670 [label=<mse = 0.0<br/>samples = 1<br/>value = 100.042>, fillcolor="#f9e0ce"] ;
668 -> 670 ;
671 [label=<mse = 0.0<br/>samples = 1<br/>value = 110.167>, fillcolor="#f8ddc9"] ;
667 -> 671 ;
672 [label=<VV &le; 7.15<br/>mse = 18.778<br/>samples = 2<br/>value = 85.542>, fillcolor="#fae4d5"] ;
666 -> 672 ;
673 [label=<mse = 0.0<br/>samples = 1<br/>value = 81.208>, fillcolor="#fae6d7"] ;
672 -> 673 ;
674 [label=<mse = 0.0<br/>samples = 1<br/>value = 89.875>, fillcolor="#f9e3d3"] ;
672 -> 674 ;
675 [label=<V &le; 1.85<br/>mse = 48.909<br/>samples = 5<br/>value = 110.108>, fillcolor="#f8ddc9"] ;
665 -> 675 ;
676 [label=<mse = 0.0<br/>samples = 1<br/>value = 122.708>, fillcolor="#f7d9c3"] ;
675 -> 676 ;
677 [label=<TM &le; 34.35<br/>mse = 11.523<br/>samples = 4<br/>value = 106.958>, fillcolor="#f8decb"] ;
675 -> 677 ;
678 [label=<H &le; 45.5<br/>mse = 3.516<br/>samples = 2<br/>value = 110.083>, fillcolor="#f8ddc9"] ;
677 -> 678 ;
679 [label=<mse = 0.0<br/>samples = 1<br/>value = 108.208>, fillcolor="#f8ddca"] ;
678 -> 679 ;
680 [label=<mse = 0.0<br/>samples = 1<br/>value = 111.958>, fillcolor="#f8dcc8"] ;
678 -> 680 ;
681 [label=<mse = 0.0<br/>samples = 2<br/>value = 103.833>, fillcolor="#f8dfcc"] ;
677 -> 681 ;
682 [label=<mse = 0.0<br/>samples = 1<br/>value = 75.75>, fillcolor="#fae7da"] ;
660 -> 682 ;
683 [label=<H &le; 29.5<br/>mse = 151.598<br/>samples = 2<br/>value = 71.521>, fillcolor="#fae9dc"] ;
653 -> 683 ;
684 [label=<mse = 0.0<br/>samples = 1<br/>value = 83.833>, fillcolor="#fae5d6"] ;
683 -> 684 ;
685 [label=<mse = 0.0<br/>samples = 1<br/>value = 59.208>, fillcolor="#fbede2"] ;
683 -> 685 ;
686 [label=<T &le; 25.55<br/>mse = 974.313<br/>samples = 26<br/>value = 75.353>, fillcolor="#fae8da"] ;
652 -> 686 ;
687 [label=<V &le; 1.0<br/>mse = 364.977<br/>samples = 5<br/>value = 51.558>, fillcolor="#fcefe6"] ;
686 -> 687 ;
688 [label=<mse = 0.0<br/>samples = 1<br/>value = 84.375>, fillcolor="#fae5d6"] ;
687 -> 688 ;
689 [label=<H &le; 64.5<br/>mse = 119.679<br/>samples = 4<br/>value = 43.354>, fillcolor="#fcf1ea"] ;
687 -> 689 ;
690 [label=<TM &le; 32.05<br/>mse = 2.709<br/>samples = 2<br/>value = 33.271>, fillcolor="#fdf5ef"] ;
689 -> 690 ;
691 [label=<mse = 0.0<br/>samples = 1<br/>value = 34.917>, fillcolor="#fdf4ee"] ;
690 -> 691 ;
692 [label=<mse = 0.0<br/>samples = 1<br/>value = 31.625>, fillcolor="#fdf5f0"] ;
690 -> 692 ;
693 [label=<TM &le; 32.55<br/>mse = 33.303<br/>samples = 2<br/>value = 53.438>, fillcolor="#fceee5"] ;
689 -> 693 ;
694 [label=<mse = 0.0<br/>samples = 1<br/>value = 47.667>, fillcolor="#fcf0e8"] ;
693 -> 694 ;
695 [label=<mse = 0.0<br/>samples = 1<br/>value = 59.208>, fillcolor="#fbede2"] ;
693 -> 695 ;
696 [label=<V &le; 3.05<br/>mse = 952.496<br/>samples = 21<br/>value = 81.018>, fillcolor="#fae6d7"] ;
686 -> 696 ;
697 [label=<V &le; 1.4<br/>mse = 728.754<br/>samples = 14<br/>value = 69.217>, fillcolor="#fbe9dd"] ;
696 -> 697 ;
698 [label=<Tm &le; 21.5<br/>mse = 152.111<br/>samples = 2<br/>value = 105.25>, fillcolor="#f8decb"] ;
697 -> 698 ;
699 [label=<mse = 0.0<br/>samples = 1<br/>value = 117.583>, fillcolor="#f7dac5"] ;
698 -> 699 ;
700 [label=<mse = 0.0<br/>samples = 1<br/>value = 92.917>, fillcolor="#f9e2d2"] ;
698 -> 700 ;
701 [label=<Tm &le; 21.45<br/>mse = 572.403<br/>samples = 12<br/>value = 63.212>, fillcolor="#fbebe0"] ;
697 -> 701 ;
702 [label=<H &le; 62.5<br/>mse = 222.546<br/>samples = 5<br/>value = 47.742>, fillcolor="#fcf0e8"] ;
701 -> 702 ;
703 [label=<T &le; 26.3<br/>mse = 191.938<br/>samples = 2<br/>value = 34.271>, fillcolor="#fdf4ee"] ;
702 -> 703 ;
704 [label=<mse = 0.0<br/>samples = 1<br/>value = 20.417>, fillcolor="#fef9f5"] ;
703 -> 704 ;
705 [label=<mse = 0.0<br/>samples = 1<br/>value = 48.125>, fillcolor="#fcf0e7"] ;
703 -> 705 ;
706 [label=<V &le; 2.05<br/>mse = 41.326<br/>samples = 3<br/>value = 56.722>, fillcolor="#fbede3"] ;
702 -> 706 ;
707 [label=<mse = 0.0<br/>samples = 1<br/>value = 65.167>, fillcolor="#fbebdf"] ;
706 -> 707 ;
708 [label=<TM &le; 32.7<br/>mse = 8.507<br/>samples = 2<br/>value = 52.5>, fillcolor="#fcefe5"] ;
706 -> 708 ;
709 [label=<mse = 0.0<br/>samples = 1<br/>value = 49.583>, fillcolor="#fcf0e7"] ;
708 -> 709 ;
710 [label=<mse = 0.0<br/>samples = 1<br/>value = 55.417>, fillcolor="#fbeee4"] ;
708 -> 710 ;
711 [label=<TM &le; 33.5<br/>mse = 529.249<br/>samples = 7<br/>value = 74.262>, fillcolor="#fae8db"] ;
701 -> 711 ;
712 [label=<V &le; 2.1<br/>mse = 74.189<br/>samples = 3<br/>value = 98.458>, fillcolor="#f9e0cf"] ;
711 -> 712 ;
713 [label=<mse = 0.0<br/>samples = 1<br/>value = 86.375>, fillcolor="#f9e4d5"] ;
712 -> 713 ;
714 [label=<TM &le; 31.95<br/>mse = 1.778<br/>samples = 2<br/>value = 104.5>, fillcolor="#f8decc"] ;
712 -> 714 ;
715 [label=<mse = 0.0<br/>samples = 1<br/>value = 103.167>, fillcolor="#f8dfcd"] ;
714 -> 715 ;
716 [label=<mse = 0.0<br/>samples = 1<br/>value = 105.833>, fillcolor="#f8decb"] ;
714 -> 716 ;
717 [label=<TM &le; 33.7<br/>mse = 102.119<br/>samples = 4<br/>value = 56.115>, fillcolor="#fbeee4"] ;
711 -> 717 ;
718 [label=<mse = 0.0<br/>samples = 1<br/>value = 72.417>, fillcolor="#fae8dc"] ;
717 -> 718 ;
719 [label=<TM &le; 34.45<br/>mse = 18.044<br/>samples = 3<br/>value = 50.681>, fillcolor="#fcefe6"] ;
717 -> 719 ;
720 [label=<VV &le; 7.3<br/>mse = 0.191<br/>samples = 2<br/>value = 47.688>, fillcolor="#fcf0e8"] ;
719 -> 720 ;
721 [label=<mse = 0.0<br/>samples = 1<br/>value = 47.25>, fillcolor="#fcf0e8"] ;
720 -> 721 ;
722 [label=<mse = 0.0<br/>samples = 1<br/>value = 48.125>, fillcolor="#fcf0e7"] ;
720 -> 722 ;
723 [label=<mse = 0.0<br/>samples = 1<br/>value = 56.667>, fillcolor="#fbede3"] ;
719 -> 723 ;
724 [label=<V &le; 4.2<br/>mse = 564.456<br/>samples = 7<br/>value = 104.619>, fillcolor="#f8decc"] ;
696 -> 724 ;
725 [label=<TM &le; 32.3<br/>mse = 258.573<br/>samples = 5<br/>value = 116.575>, fillcolor="#f8dbc6"] ;
724 -> 725 ;
726 [label=<mse = 0.0<br/>samples = 1<br/>value = 141.958>, fillcolor="#f6d3ba"] ;
725 -> 726 ;
727 [label=<T &le; 27.55<br/>mse = 121.869<br/>samples = 4<br/>value = 110.229>, fillcolor="#f8ddc9"] ;
725 -> 727 ;
728 [label=<TM &le; 34.25<br/>mse = 70.385<br/>samples = 3<br/>value = 115.028>, fillcolor="#f8dbc7"] ;
727 -> 728 ;
729 [label=<Tm &le; 22.0<br/>mse = 0.062<br/>samples = 2<br/>value = 120.958>, fillcolor="#f7d9c4"] ;
728 -> 729 ;
730 [label=<mse = 0.0<br/>samples = 1<br/>value = 120.708>, fillcolor="#f7d9c4"] ;
729 -> 730 ;
731 [label=<mse = 0.0<br/>samples = 1<br/>value = 121.208>, fillcolor="#f7d9c4"] ;
729 -> 731 ;
732 [label=<mse = 0.0<br/>samples = 1<br/>value = 103.167>, fillcolor="#f8dfcd"] ;
728 -> 732 ;
733 [label=<mse = 0.0<br/>samples = 1<br/>value = 95.833>, fillcolor="#f9e1d0"] ;
727 -> 733 ;
734 [label=<VM &le; 6.5<br/>mse = 78.396<br/>samples = 2<br/>value = 74.729>, fillcolor="#fae8da"] ;
724 -> 734 ;
735 [label=<mse = 0.0<br/>samples = 1<br/>value = 65.875>, fillcolor="#fbeadf"] ;
734 -> 735 ;
736 [label=<mse = 0.0<br/>samples = 1<br/>value = 83.583>, fillcolor="#fae5d6"] ;
734 -> 736 ;
737 [label=<H &le; 62.5<br/>mse = 1071.146<br/>samples = 13<br/>value = 117.929>, fillcolor="#f7dac5"] ;
637 -> 737 ;
738 [label=<H &le; 55.0<br/>mse = 421.611<br/>samples = 10<br/>value = 104.675>, fillcolor="#f8decc"] ;
737 -> 738 ;
739 [label=<V &le; 3.05<br/>mse = 28.829<br/>samples = 3<br/>value = 125.944>, fillcolor="#f7d8c1"] ;
738 -> 739 ;
740 [label=<mse = 0.0<br/>samples = 1<br/>value = 133.375>, fillcolor="#f6d5be"] ;
739 -> 740 ;
741 [label=<V &le; 3.6<br/>mse = 1.834<br/>samples = 2<br/>value = 122.229>, fillcolor="#f7d9c3"] ;
739 -> 741 ;
742 [label=<mse = 0.0<br/>samples = 1<br/>value = 120.875>, fillcolor="#f7d9c4"] ;
741 -> 742 ;
743 [label=<mse = 0.0<br/>samples = 1<br/>value = 123.583>, fillcolor="#f7d9c3"] ;
741 -> 743 ;
744 [label=<VM &le; 4.45<br/>mse = 312.974<br/>samples = 7<br/>value = 95.56>, fillcolor="#f9e1d0"] ;
738 -> 744 ;
745 [label=<mse = 0.0<br/>samples = 1<br/>value = 128.125>, fillcolor="#f7d7c0"] ;
744 -> 745 ;
746 [label=<VV &le; 6.45<br/>mse = 158.926<br/>samples = 6<br/>value = 90.132>, fillcolor="#f9e3d3"] ;
744 -> 746 ;
747 [label=<VV &le; 5.75<br/>mse = 0.062<br/>samples = 2<br/>value = 77.458>, fillcolor="#fae7d9"] ;
746 -> 747 ;
748 [label=<mse = 0.0<br/>samples = 1<br/>value = 77.208>, fillcolor="#fae7d9"] ;
747 -> 748 ;
749 [label=<mse = 0.0<br/>samples = 1<br/>value = 77.708>, fillcolor="#fae7d9"] ;
747 -> 749 ;
750 [label=<TM &le; 34.45<br/>mse = 117.892<br/>samples = 4<br/>value = 96.469>, fillcolor="#f9e1d0"] ;
746 -> 750 ;
751 [label=<H &le; 58.5<br/>mse = 21.564<br/>samples = 3<br/>value = 102.292>, fillcolor="#f8dfcd"] ;
750 -> 751 ;
752 [label=<mse = 0.0<br/>samples = 1<br/>value = 108.333>, fillcolor="#f8ddca"] ;
751 -> 752 ;
753 [label=<H &le; 61.0<br/>mse = 4.969<br/>samples = 2<br/>value = 99.271>, fillcolor="#f9e0ce"] ;
751 -> 753 ;
754 [label=<mse = 0.0<br/>samples = 1<br/>value = 101.5>, fillcolor="#f8dfcd"] ;
753 -> 754 ;
755 [label=<mse = 0.0<br/>samples = 1<br/>value = 97.042>, fillcolor="#f9e1cf"] ;
753 -> 755 ;
756 [label=<mse = 0.0<br/>samples = 1<br/>value = 79.0>, fillcolor="#fae6d8"] ;
750 -> 756 ;
757 [label=<V &le; 3.4<br/>mse = 698.639<br/>samples = 3<br/>value = 162.111>, fillcolor="#f5cdb0"] ;
737 -> 757 ;
758 [label=<Tm &le; 22.65<br/>mse = 34.271<br/>samples = 2<br/>value = 143.729>, fillcolor="#f6d2b9"] ;
757 -> 758 ;
759 [label=<mse = 0.0<br/>samples = 1<br/>value = 149.583>, fillcolor="#f5d0b6"] ;
758 -> 759 ;
760 [label=<mse = 0.0<br/>samples = 1<br/>value = 137.875>, fillcolor="#f6d4bc"] ;
758 -> 760 ;
761 [label=<mse = 0.0<br/>samples = 1<br/>value = 198.875>, fillcolor="#f2c19e"] ;
757 -> 761 ;
762 [label=<T &le; 27.75<br/>mse = 1819.45<br/>samples = 80<br/>value = 75.04>, fillcolor="#fae8da"] ;
626 -> 762 ;
763 [label=<TM &le; 36.75<br/>mse = 1432.587<br/>samples = 17<br/>value = 91.929>, fillcolor="#f9e2d2"] ;
762 -> 763 ;
764 [label=<TM &le; 36.45<br/>mse = 1229.67<br/>samples = 16<br/>value = 87.781>, fillcolor="#f9e4d4"] ;
763 -> 764 ;
765 [label=<T &le; 26.7<br/>mse = 1015.139<br/>samples = 15<br/>value = 92.086>, fillcolor="#f9e2d2"] ;
764 -> 765 ;
766 [label=<H &le; 66.0<br/>mse = 467.325<br/>samples = 6<br/>value = 75.611>, fillcolor="#fae7da"] ;
765 -> 766 ;
767 [label=<T &le; 26.15<br/>mse = 180.355<br/>samples = 4<br/>value = 62.438>, fillcolor="#fbece0"] ;
766 -> 767 ;
768 [label=<H &le; 50.0<br/>mse = 36.25<br/>samples = 2<br/>value = 73.812>, fillcolor="#fae8db"] ;
767 -> 768 ;
769 [label=<mse = 0.0<br/>samples = 1<br/>value = 79.833>, fillcolor="#fae6d8"] ;
768 -> 769 ;
770 [label=<mse = 0.0<br/>samples = 1<br/>value = 67.792>, fillcolor="#fbeade"] ;
768 -> 770 ;
771 [label=<T &le; 26.55<br/>mse = 65.678<br/>samples = 2<br/>value = 51.062>, fillcolor="#fcefe6"] ;
767 -> 771 ;
772 [label=<mse = 0.0<br/>samples = 1<br/>value = 59.167>, fillcolor="#fbede2"] ;
771 -> 772 ;
773 [label=<mse = 0.0<br/>samples = 1<br/>value = 42.958>, fillcolor="#fcf2ea"] ;
771 -> 773 ;
774 [label=<mse = 0.0<br/>samples = 2<br/>value = 101.958>, fillcolor="#f8dfcd"] ;
766 -> 774 ;
775 [label=<Tm &le; 20.2<br/>mse = 1078.764<br/>samples = 9<br/>value = 103.069>, fillcolor="#f8dfcd"] ;
765 -> 775 ;
776 [label=<mse = 0.0<br/>samples = 1<br/>value = 44.792>, fillcolor="#fcf1e9"] ;
775 -> 776 ;
777 [label=<TM &le; 34.9<br/>mse = 736.005<br/>samples = 8<br/>value = 110.354>, fillcolor="#f8ddc9"] ;
775 -> 777 ;
778 [label=<mse = 0.0<br/>samples = 1<br/>value = 64.792>, fillcolor="#fbebdf"] ;
777 -> 778 ;
779 [label=<H &le; 48.5<br/>mse = 502.22<br/>samples = 7<br/>value = 116.863>, fillcolor="#f7dbc6"] ;
777 -> 779 ;
780 [label=<TM &le; 35.45<br/>mse = 221.312<br/>samples = 5<br/>value = 105.192>, fillcolor="#f8decc"] ;
779 -> 780 ;
781 [label=<TM &le; 35.15<br/>mse = 82.098<br/>samples = 3<br/>value = 115.569>, fillcolor="#f8dbc6"] ;
780 -> 781 ;
782 [label=<mse = 0.0<br/>samples = 1<br/>value = 128.333>, fillcolor="#f7d7c0"] ;
781 -> 782 ;
783 [label=<Tm &le; 20.4<br/>mse = 0.959<br/>samples = 2<br/>value = 109.188>, fillcolor="#f8ddca"] ;
781 -> 783 ;
784 [label=<mse = 0.0<br/>samples = 1<br/>value = 108.208>, fillcolor="#f8ddca"] ;
783 -> 784 ;
785 [label=<mse = 0.0<br/>samples = 1<br/>value = 110.167>, fillcolor="#f8ddc9"] ;
783 -> 785 ;
786 [label=<Tm &le; 20.95<br/>mse = 26.266<br/>samples = 2<br/>value = 89.625>, fillcolor="#f9e3d3"] ;
780 -> 786 ;
787 [label=<mse = 0.0<br/>samples = 1<br/>value = 94.75>, fillcolor="#f9e1d1"] ;
786 -> 787 ;
788 [label=<mse = 0.0<br/>samples = 1<br/>value = 84.5>, fillcolor="#fae5d6"] ;
786 -> 788 ;
789 [label=<H &le; 56.0<br/>mse = 12.543<br/>samples = 2<br/>value = 146.042>, fillcolor="#f6d2b8"] ;
779 -> 789 ;
790 [label=<mse = 0.0<br/>samples = 1<br/>value = 142.5>, fillcolor="#f6d3b9"] ;
789 -> 790 ;
791 [label=<mse = 0.0<br/>samples = 1<br/>value = 149.583>, fillcolor="#f5d0b6"] ;
789 -> 791 ;
792 [label=<mse = -0.0<br/>samples = 1<br/>value = 23.208>, fillcolor="#fef8f4"] ;
764 -> 792 ;
793 [label=<mse = 0.0<br/>samples = 1<br/>value = 158.292>, fillcolor="#f5ceb2"] ;
763 -> 793 ;
794 [label=<TM &le; 35.85<br/>mse = 1826.106<br/>samples = 63<br/>value = 70.483>, fillcolor="#fae9dc"] ;
762 -> 794 ;
795 [label=<T &le; 29.05<br/>mse = 1663.27<br/>samples = 32<br/>value = 57.176>, fillcolor="#fbede3"] ;
794 -> 795 ;
796 [label=<T &le; 28.95<br/>mse = 1436.913<br/>samples = 27<br/>value = 63.045>, fillcolor="#fbebe0"] ;
795 -> 796 ;
797 [label=<TM &le; 35.35<br/>mse = 1280.372<br/>samples = 24<br/>value = 57.023>, fillcolor="#fbede3"] ;
796 -> 797 ;
798 [label=<T &le; 28.2<br/>mse = 954.625<br/>samples = 9<br/>value = 37.583>, fillcolor="#fdf3ed"] ;
797 -> 798 ;
799 [label=<T &le; 27.85<br/>mse = 878.684<br/>samples = 5<br/>value = 56.208>, fillcolor="#fbede3"] ;
798 -> 799 ;
800 [label=<mse = 0.0<br/>samples = 1<br/>value = 21.25>, fillcolor="#fef8f5"] ;
799 -> 800 ;
801 [label=<TM &le; 35.05<br/>mse = 716.453<br/>samples = 4<br/>value = 64.948>, fillcolor="#fbebdf"] ;
799 -> 801 ;
802 [label=<T &le; 28.05<br/>mse = 363.498<br/>samples = 3<br/>value = 77.111>, fillcolor="#fae7d9"] ;
801 -> 802 ;
803 [label=<H &le; 54.0<br/>mse = 84.793<br/>samples = 2<br/>value = 89.5>, fillcolor="#f9e3d3"] ;
802 -> 803 ;
804 [label=<mse = 0.0<br/>samples = 1<br/>value = 98.708>, fillcolor="#f9e0cf"] ;
803 -> 804 ;
805 [label=<mse = 0.0<br/>samples = 1<br/>value = 80.292>, fillcolor="#fae6d8"] ;
803 -> 805 ;
806 [label=<mse = 0.0<br/>samples = 1<br/>value = 52.333>, fillcolor="#fcefe5"] ;
802 -> 806 ;
807 [label=<mse = 0.0<br/>samples = 1<br/>value = 28.458>, fillcolor="#fdf6f1"] ;
801 -> 807 ;
808 [label=<H &le; 55.5<br/>mse = 73.921<br/>samples = 4<br/>value = 14.302>, fillcolor="#fefbf8"] ;
798 -> 808 ;
809 [label=<H &le; 44.5<br/>mse = 7.651<br/>samples = 3<br/>value = 19.069>, fillcolor="#fef9f6"] ;
808 -> 809 ;
810 [label=<mse = 0.0<br/>samples = 1<br/>value = 15.167>, fillcolor="#fefaf8"] ;
809 -> 810 ;
811 [label=<T &le; 28.5<br/>mse = 0.053<br/>samples = 2<br/>value = 21.021>, fillcolor="#fef8f5"] ;
809 -> 811 ;
812 [label=<mse = 0.0<br/>samples = 1<br/>value = 21.25>, fillcolor="#fef8f5"] ;
811 -> 812 ;
813 [label=<mse = 0.0<br/>samples = 1<br/>value = 20.792>, fillcolor="#fef9f5"] ;
811 -> 813 ;
814 [label=<mse = 0.0<br/>samples = 1<br/>value = 0.0>, fillcolor="#ffffff"] ;
808 -> 814 ;
815 [label=<TM &le; 35.55<br/>mse = 1113.052<br/>samples = 15<br/>value = 68.686>, fillcolor="#fbeadd"] ;
797 -> 815 ;
816 [label=<H &le; 40.0<br/>mse = 1264.205<br/>samples = 9<br/>value = 78.106>, fillcolor="#fae7d9"] ;
815 -> 816 ;
817 [label=<Tm &le; 22.45<br/>mse = 625.0<br/>samples = 2<br/>value = 112.875>, fillcolor="#f8dcc8"] ;
816 -> 817 ;
818 [label=<mse = 0.0<br/>samples = 1<br/>value = 87.875>, fillcolor="#f9e4d4"] ;
817 -> 818 ;
819 [label=<mse = 0.0<br/>samples = 1<br/>value = 137.875>, fillcolor="#f6d4bc"] ;
817 -> 819 ;
820 [label=<V &le; 2.7<br/>mse = 1002.767<br/>samples = 7<br/>value = 68.173>, fillcolor="#fbeade"] ;
816 -> 820 ;
821 [label=<Tm &le; 23.25<br/>mse = 197.53<br/>samples = 3<br/>value = 44.819>, fillcolor="#fcf1e9"] ;
820 -> 821 ;
822 [label=<VM &le; 6.5<br/>mse = 23.563<br/>samples = 2<br/>value = 54.354>, fillcolor="#fceee4"] ;
821 -> 822 ;
823 [label=<mse = 0.0<br/>samples = 1<br/>value = 59.208>, fillcolor="#fbede2"] ;
822 -> 823 ;
824 [label=<mse = 0.0<br/>samples = 1<br/>value = 49.5>, fillcolor="#fcf0e7"] ;
822 -> 824 ;
825 [label=<mse = 0.0<br/>samples = 1<br/>value = 25.75>, fillcolor="#fdf7f2"] ;
821 -> 825 ;
826 [label=<Tm &le; 23.0<br/>mse = 890.896<br/>samples = 4<br/>value = 85.687>, fillcolor="#f9e4d5"] ;
820 -> 826 ;
827 [label=<V &le; 3.45<br/>mse = 672.754<br/>samples = 2<br/>value = 107.771>, fillcolor="#f8ddca"] ;
826 -> 827 ;
828 [label=<mse = 0.0<br/>samples = 1<br/>value = 81.833>, fillcolor="#fae6d7"] ;
827 -> 828 ;
829 [label=<mse = 0.0<br/>samples = 1<br/>value = 133.708>, fillcolor="#f6d5be"] ;
827 -> 829 ;
830 [label=<TM &le; 35.45<br/>mse = 133.691<br/>samples = 2<br/>value = 63.604>, fillcolor="#fbebe0"] ;
826 -> 830 ;
831 [label=<mse = 0.0<br/>samples = 1<br/>value = 52.042>, fillcolor="#fcefe6"] ;
830 -> 831 ;
832 [label=<mse = 0.0<br/>samples = 1<br/>value = 75.167>, fillcolor="#fae8da"] ;
830 -> 832 ;
833 [label=<VV &le; 6.6<br/>mse = 553.534<br/>samples = 6<br/>value = 54.556>, fillcolor="#fbeee4"] ;
815 -> 833 ;
834 [label=<mse = 0.0<br/>samples = 1<br/>value = 101.375>, fillcolor="#f8dfcd"] ;
833 -> 834 ;
835 [label=<T &le; 28.35<br/>mse = 138.146<br/>samples = 5<br/>value = 45.192>, fillcolor="#fcf1e9"] ;
833 -> 835 ;
836 [label=<Tm &le; 20.3<br/>mse = 2.331<br/>samples = 3<br/>value = 53.264>, fillcolor="#fceee5"] ;
835 -> 836 ;
837 [label=<mse = 0.0<br/>samples = 1<br/>value = 55.417>, fillcolor="#fbeee4"] ;
836 -> 837 ;
838 [label=<Tm &le; 21.7<br/>mse = 0.021<br/>samples = 2<br/>value = 52.188>, fillcolor="#fcefe5"] ;
836 -> 838 ;
839 [label=<mse = 0.0<br/>samples = 1<br/>value = 52.333>, fillcolor="#fcefe5"] ;
838 -> 839 ;
840 [label=<mse = 0.0<br/>samples = 1<br/>value = 52.042>, fillcolor="#fcefe6"] ;
838 -> 840 ;
841 [label=<V &le; 3.15<br/>mse = 97.516<br/>samples = 2<br/>value = 33.083>, fillcolor="#fdf5ef"] ;
835 -> 841 ;
842 [label=<mse = 0.0<br/>samples = 1<br/>value = 23.208>, fillcolor="#fef8f4"] ;
841 -> 842 ;
843 [label=<mse = 0.0<br/>samples = 1<br/>value = 42.958>, fillcolor="#fcf2ea"] ;
841 -> 843 ;
844 [label=<VM &le; 4.45<br/>mse = 78.035<br/>samples = 3<br/>value = 111.222>, fillcolor="#f8dcc9"] ;
796 -> 844 ;
845 [label=<mse = 0.0<br/>samples = 1<br/>value = 123.708>, fillcolor="#f7d8c2"] ;
844 -> 845 ;
846 [label=<V &le; 2.9<br/>mse = 0.125<br/>samples = 2<br/>value = 104.979>, fillcolor="#f8decc"] ;
844 -> 846 ;
847 [label=<mse = 0.0<br/>samples = 1<br/>value = 105.333>, fillcolor="#f8decb"] ;
846 -> 847 ;
848 [label=<mse = 0.0<br/>samples = 1<br/>value = 104.625>, fillcolor="#f8decc"] ;
846 -> 848 ;
849 [label=<TM &le; 35.7<br/>mse = 1695.184<br/>samples = 5<br/>value = 25.483>, fillcolor="#fdf7f3"] ;
795 -> 849 ;
850 [label=<V &le; 3.45<br/>mse = 84.668<br/>samples = 4<br/>value = 5.312>, fillcolor="#fffdfc"] ;
849 -> 850 ;
851 [label=<mse = 0.0<br/>samples = 3<br/>value = 0.0>, fillcolor="#ffffff"] ;
850 -> 851 ;
852 [label=<mse = 0.0<br/>samples = 1<br/>value = 21.25>, fillcolor="#fef8f5"] ;
850 -> 852 ;
853 [label=<mse = 0.0<br/>samples = 1<br/>value = 106.167>, fillcolor="#f8decb"] ;
849 -> 853 ;
854 [label=<TM &le; 36.15<br/>mse = 1622.72<br/>samples = 31<br/>value = 84.219>, fillcolor="#fae5d6"] ;
794 -> 854 ;
855 [label=<Tm &le; 24.6<br/>mse = 462.146<br/>samples = 8<br/>value = 107.833>, fillcolor="#f8ddca"] ;
854 -> 855 ;
856 [label=<H &le; 45.0<br/>mse = 198.167<br/>samples = 7<br/>value = 114.256>, fillcolor="#f8dbc7"] ;
855 -> 856 ;
857 [label=<H &le; 30.5<br/>mse = 179.305<br/>samples = 5<br/>value = 109.092>, fillcolor="#f8ddca"] ;
856 -> 857 ;
858 [label=<mse = 0.0<br/>samples = 1<br/>value = 128.333>, fillcolor="#f7d7c0"] ;
857 -> 858 ;
859 [label=<H &le; 41.0<br/>mse = 108.431<br/>samples = 4<br/>value = 104.281>, fillcolor="#f8dfcc"] ;
857 -> 859 ;
860 [label=<VM &le; 4.45<br/>mse = 25.84<br/>samples = 2<br/>value = 94.958>, fillcolor="#f9e1d1"] ;
859 -> 860 ;
861 [label=<mse = 0.0<br/>samples = 1<br/>value = 100.042>, fillcolor="#f9e0ce"] ;
860 -> 861 ;
862 [label=<mse = 0.0<br/>samples = 1<br/>value = 89.875>, fillcolor="#f9e3d3"] ;
860 -> 862 ;
863 [label=<TM &le; 35.95<br/>mse = 17.188<br/>samples = 2<br/>value = 113.604>, fillcolor="#f8dcc7"] ;
859 -> 863 ;
864 [label=<mse = 0.0<br/>samples = 1<br/>value = 109.458>, fillcolor="#f8ddc9"] ;
863 -> 864 ;
865 [label=<mse = 0.0<br/>samples = 1<br/>value = 117.75>, fillcolor="#f7dac5"] ;
863 -> 865 ;
866 [label=<Tm &le; 23.7<br/>mse = 11.96<br/>samples = 2<br/>value = 127.167>, fillcolor="#f7d7c1"] ;
856 -> 866 ;
867 [label=<mse = 0.0<br/>samples = 1<br/>value = 123.708>, fillcolor="#f7d8c2"] ;
866 -> 867 ;
868 [label=<mse = 0.0<br/>samples = 1<br/>value = 130.625>, fillcolor="#f7d6bf"] ;
866 -> 868 ;
869 [label=<mse = 0.0<br/>samples = 1<br/>value = 62.875>, fillcolor="#fbebe0"] ;
855 -> 869 ;
870 [label=<VM &le; 4.45<br/>mse = 1764.974<br/>samples = 23<br/>value = 76.005>, fillcolor="#fae7da"] ;
854 -> 870 ;
871 [label=<T &le; 30.15<br/>mse = 376.636<br/>samples = 8<br/>value = 104.245>, fillcolor="#f8dfcc"] ;
870 -> 871 ;
872 [label=<TM &le; 36.8<br/>mse = 191.508<br/>samples = 7<br/>value = 98.78>, fillcolor="#f9e0cf"] ;
871 -> 872 ;
873 [label=<Tm &le; 24.45<br/>mse = 112.228<br/>samples = 5<br/>value = 105.408>, fillcolor="#f8decb"] ;
872 -> 873 ;
874 [label=<mse = 0.0<br/>samples = 2<br/>value = 117.75>, fillcolor="#f7dac5"] ;
873 -> 874 ;
875 [label=<T &le; 29.7<br/>mse = 17.806<br/>samples = 3<br/>value = 97.181>, fillcolor="#f9e1cf"] ;
873 -> 875 ;
876 [label=<Tm &le; 24.75<br/>mse = 6.146<br/>samples = 2<br/>value = 94.562>, fillcolor="#f9e2d1"] ;
875 -> 876 ;
877 [label=<mse = 0.0<br/>samples = 1<br/>value = 97.042>, fillcolor="#f9e1cf"] ;
876 -> 877 ;
878 [label=<mse = 0.0<br/>samples = 1<br/>value = 92.083>, fillcolor="#f9e2d2"] ;
876 -> 878 ;
879 [label=<mse = 0.0<br/>samples = 1<br/>value = 102.417>, fillcolor="#f8dfcd"] ;
875 -> 879 ;
880 [label=<Tm &le; 23.25<br/>mse = 5.252<br/>samples = 2<br/>value = 82.208>, fillcolor="#fae5d7"] ;
872 -> 880 ;
881 [label=<mse = 0.0<br/>samples = 1<br/>value = 79.917>, fillcolor="#fae6d8"] ;
880 -> 881 ;
882 [label=<mse = 0.0<br/>samples = 1<br/>value = 84.5>, fillcolor="#fae5d6"] ;
880 -> 882 ;
883 [label=<mse = 0.0<br/>samples = 1<br/>value = 142.5>, fillcolor="#f6d3b9"] ;
871 -> 883 ;
884 [label=<TM &le; 37.25<br/>mse = 1853.276<br/>samples = 15<br/>value = 60.944>, fillcolor="#fbece1"] ;
870 -> 884 ;
885 [label=<V &le; 3.2<br/>mse = 1465.758<br/>samples = 13<br/>value = 51.628>, fillcolor="#fcefe6"] ;
884 -> 885 ;
886 [label=<H &le; 45.0<br/>mse = 1145.871<br/>samples = 8<br/>value = 34.927>, fillcolor="#fdf4ee"] ;
885 -> 886 ;
887 [label=<VM &le; 6.5<br/>mse = 679.774<br/>samples = 3<br/>value = 68.528>, fillcolor="#fbeadd"] ;
886 -> 887 ;
888 [label=<Tm &le; 21.95<br/>mse = 3.674<br/>samples = 2<br/>value = 50.125>, fillcolor="#fcefe6"] ;
887 -> 888 ;
889 [label=<mse = 0.0<br/>samples = 1<br/>value = 52.042>, fillcolor="#fcefe6"] ;
888 -> 889 ;
890 [label=<mse = 0.0<br/>samples = 1<br/>value = 48.208>, fillcolor="#fcf0e7"] ;
888 -> 890 ;
891 [label=<mse = 0.0<br/>samples = 1<br/>value = 105.333>, fillcolor="#f8decb"] ;
887 -> 891 ;
892 [label=<Tm &le; 23.55<br/>mse = 341.682<br/>samples = 5<br/>value = 14.767>, fillcolor="#fefaf8"] ;
886 -> 892 ;
893 [label=<mse = 0.0<br/>samples = 2<br/>value = 0.0>, fillcolor="#ffffff"] ;
892 -> 893 ;
894 [label=<Tm &le; 24.7<br/>mse = 327.188<br/>samples = 3<br/>value = 24.611>, fillcolor="#fdf7f3"] ;
892 -> 894 ;
895 [label=<TM &le; 36.8<br/>mse = 36.502<br/>samples = 2<br/>value = 36.917>, fillcolor="#fdf4ed"] ;
894 -> 895 ;
896 [label=<mse = 0.0<br/>samples = 1<br/>value = 42.958>, fillcolor="#fcf2ea"] ;
895 -> 896 ;
897 [label=<mse = 0.0<br/>samples = 1<br/>value = 30.875>, fillcolor="#fdf5f0"] ;
895 -> 897 ;
898 [label=<mse = 0.0<br/>samples = 1<br/>value = 0.0>, fillcolor="#ffffff"] ;
894 -> 898 ;
899 [label=<V &le; 3.9<br/>mse = 817.239<br/>samples = 5<br/>value = 78.35>, fillcolor="#fae7d9"] ;
885 -> 899 ;
900 [label=<V &le; 3.4<br/>mse = 268.586<br/>samples = 3<br/>value = 99.264>, fillcolor="#f9e0ce"] ;
899 -> 900 ;
901 [label=<mse = 0.0<br/>samples = 1<br/>value = 121.208>, fillcolor="#f7d9c4"] ;
900 -> 901 ;
902 [label=<V &le; 3.6<br/>mse = 41.71<br/>samples = 2<br/>value = 88.292>, fillcolor="#f9e3d4"] ;
900 -> 902 ;
903 [label=<mse = 0.0<br/>samples = 1<br/>value = 94.75>, fillcolor="#f9e1d1"] ;
902 -> 903 ;
904 [label=<mse = 0.0<br/>samples = 1<br/>value = 81.833>, fillcolor="#fae6d7"] ;
902 -> 904 ;
905 [label=<H &le; 41.5<br/>mse = 0.004<br/>samples = 2<br/>value = 46.979>, fillcolor="#fcf0e8"] ;
899 -> 905 ;
906 [label=<mse = 0.0<br/>samples = 1<br/>value = 46.917>, fillcolor="#fcf0e8"] ;
905 -> 906 ;
907 [label=<mse = 0.0<br/>samples = 1<br/>value = 47.042>, fillcolor="#fcf0e8"] ;
905 -> 907 ;
908 [label=<VV &le; 7.3<br/>mse = 141.016<br/>samples = 2<br/>value = 121.5>, fillcolor="#f7d9c4"] ;
884 -> 908 ;
909 [label=<mse = 0.0<br/>samples = 1<br/>value = 133.375>, fillcolor="#f6d5be"] ;
908 -> 909 ;
910 [label=<mse = 0.0<br/>samples = 1<br/>value = 109.625>, fillcolor="#f8ddc9"] ;
908 -> 910 ;
911 [label=<V &le; 2.1<br/>mse = 767.033<br/>samples = 36<br/>value = 55.347>, fillcolor="#fbeee4"] ;
545 -> 911 ;
912 [label=<H &le; 81.5<br/>mse = 666.766<br/>samples = 9<br/>value = 33.315>, fillcolor="#fdf5ef"] ;
911 -> 912 ;
913 [label=<V &le; 0.75<br/>mse = 449.561<br/>samples = 7<br/>value = 42.833>, fillcolor="#fcf2ea"] ;
912 -> 913 ;
914 [label=<mse = 0.0<br/>samples = 1<br/>value = 0.0>, fillcolor="#ffffff"] ;
913 -> 914 ;
915 [label=<V &le; 1.3<br/>mse = 167.741<br/>samples = 6<br/>value = 49.972>, fillcolor="#fcefe7"] ;
913 -> 915 ;
916 [label=<T &le; 24.8<br/>mse = 4.694<br/>samples = 2<br/>value = 62.708>, fillcolor="#fbebe0"] ;
915 -> 916 ;
917 [label=<mse = 0.0<br/>samples = 1<br/>value = 64.875>, fillcolor="#fbebdf"] ;
916 -> 917 ;
918 [label=<mse = 0.0<br/>samples = 1<br/>value = 60.542>, fillcolor="#fbece1"] ;
916 -> 918 ;
919 [label=<V &le; 1.7<br/>mse = 127.608<br/>samples = 4<br/>value = 43.604>, fillcolor="#fcf1ea"] ;
915 -> 919 ;
920 [label=<Tm &le; 20.45<br/>mse = 3.594<br/>samples = 2<br/>value = 32.521>, fillcolor="#fdf5ef"] ;
919 -> 920 ;
921 [label=<mse = 0.0<br/>samples = 1<br/>value = 30.625>, fillcolor="#fdf5f0"] ;
920 -> 921 ;
922 [label=<mse = 0.0<br/>samples = 1<br/>value = 34.417>, fillcolor="#fdf4ee"] ;
920 -> 922 ;
923 [label=<T &le; 24.35<br/>mse = 5.941<br/>samples = 2<br/>value = 54.688>, fillcolor="#fbeee4"] ;
919 -> 923 ;
924 [label=<mse = 0.0<br/>samples = 1<br/>value = 52.25>, fillcolor="#fcefe5"] ;
923 -> 924 ;
925 [label=<mse = 0.0<br/>samples = 1<br/>value = 57.125>, fillcolor="#fbede3"] ;
923 -> 925 ;
926 [label=<mse = 0.0<br/>samples = 2<br/>value = 0.0>, fillcolor="#ffffff"] ;
912 -> 926 ;
927 [label=<VV &le; 8.45<br/>mse = 584.71<br/>samples = 27<br/>value = 62.691>, fillcolor="#fbebe0"] ;
911 -> 927 ;
928 [label=<T &le; 24.25<br/>mse = 508.576<br/>samples = 26<br/>value = 64.603>, fillcolor="#fbebdf"] ;
927 -> 928 ;
929 [label=<TM &le; 29.35<br/>mse = 530.768<br/>samples = 11<br/>value = 75.095>, fillcolor="#fae8da"] ;
928 -> 929 ;
930 [label=<TM &le; 28.55<br/>mse = 106.011<br/>samples = 4<br/>value = 52.458>, fillcolor="#fcefe5"] ;
929 -> 930 ;
931 [label=<VM &le; 7.4<br/>mse = 1.511<br/>samples = 2<br/>value = 42.729>, fillcolor="#fcf2ea"] ;
930 -> 931 ;
932 [label=<mse = 0.0<br/>samples = 1<br/>value = 43.958>, fillcolor="#fcf1e9"] ;
931 -> 932 ;
933 [label=<mse = 0.0<br/>samples = 1<br/>value = 41.5>, fillcolor="#fcf2eb"] ;
931 -> 933 ;
934 [label=<Tm &le; 20.45<br/>mse = 21.198<br/>samples = 2<br/>value = 62.187>, fillcolor="#fbece1"] ;
930 -> 934 ;
935 [label=<mse = 0.0<br/>samples = 1<br/>value = 66.792>, fillcolor="#fbeade"] ;
934 -> 935 ;
936 [label=<mse = 0.0<br/>samples = 1<br/>value = 57.583>, fillcolor="#fbede3"] ;
934 -> 936 ;
937 [label=<T &le; 23.9<br/>mse = 313.367<br/>samples = 7<br/>value = 88.03>, fillcolor="#f9e4d4"] ;
929 -> 937 ;
938 [label=<V &le; 3.15<br/>mse = 66.016<br/>samples = 2<br/>value = 63.833>, fillcolor="#fbebe0"] ;
937 -> 938 ;
939 [label=<mse = 0.0<br/>samples = 1<br/>value = 55.708>, fillcolor="#fbeee4"] ;
938 -> 939 ;
940 [label=<mse = 0.0<br/>samples = 1<br/>value = 71.958>, fillcolor="#fae9dc"] ;
938 -> 940 ;
941 [label=<V &le; 3.7<br/>mse = 84.447<br/>samples = 5<br/>value = 97.708>, fillcolor="#f9e1cf"] ;
937 -> 941 ;
942 [label=<TM &le; 31.6<br/>mse = 39.098<br/>samples = 4<br/>value = 94.063>, fillcolor="#f9e2d1"] ;
941 -> 942 ;
943 [label=<Tm &le; 21.25<br/>mse = 3.324<br/>samples = 3<br/>value = 97.556>, fillcolor="#f9e1cf"] ;
942 -> 943 ;
944 [label=<V &le; 2.85<br/>mse = 1.0<br/>samples = 2<br/>value = 98.708>, fillcolor="#f9e0cf"] ;
943 -> 944 ;
945 [label=<mse = 0.0<br/>samples = 1<br/>value = 99.708>, fillcolor="#f9e0ce"] ;
944 -> 945 ;
